double fc1_bias[64] = {0.06454306095838547, 0.06572023779153824, -0.4509083330631256, 0.03080332651734352, -0.12897281348705292, -0.19129851460456848, 0.1621035933494568, 0.27321314811706543, 0.08745444566011429, -0.39085811376571655, 0.09185050427913666, -0.14497360587120056, -0.13411512970924377, 0.032241277396678925, -0.11893793195486069, -0.09265458583831787, -0.12387028336524963, 0.12978118658065796, 0.34450796246528625, 0.1972782462835312, -0.2774212658405304, -0.16394123435020447, 0.38634204864501953, -0.0664471983909607, 0.2876080274581909, 0.20474255084991455, -0.34212785959243774, 0.4778956472873688, -0.056505005806684494, 0.04898494482040405, 0.304574579000473, -0.28733769059181213, -0.2447185516357422, -0.15770895779132843, 0.1927018016576767, 0.20704607665538788, -0.19057537615299225, 0.13411274552345276, 0.3665810227394104, -0.28291475772857666, 0.11801274120807648, 0.16243085265159607, -0.11952833086252213, 0.21313713490962982, 0.09041208773851395, -0.2093738168478012, -0.19957202672958374, -0.22577396035194397, -0.20478060841560364, 0.006671674083918333, -0.1846795380115509, -0.08558652549982071, 0.002669902518391609, -0.18006345629692078, 0.27161192893981934, -0.030224036425352097, 0.08300980925559998, 0.00727881770581007, -0.10851050913333893, 0.15553544461727142, 0.08062374591827393, -0.030151285231113434, 0.24474290013313293, -0.08901337534189224};
