double fc1_weight[50176] = {0.017811516299843788, 0.028700340539216995, -0.018704712390899658, 0.02721228078007698, -0.028382476419210434, -0.004708149936050177, 0.009726869873702526, -0.01739395223557949, -0.03338276222348213, 0.009174947626888752, -0.03038688376545906, -0.026991233229637146, 0.04652581363916397, 0.051482245326042175, 0.11176417022943497, 0.019193461164832115, -0.022307056933641434, 0.013329553417861462, 0.020467128604650497, 0.007239874452352524, 0.007574967108666897, -0.023334389552474022, 0.008291585370898247, -0.0007917413022369146, 0.018376359716057777, -0.001519582117907703, -0.016895856708288193, 0.029378019273281097, -0.0020281034521758556, 0.0068892501294612885, 0.020712239667773247, 0.027140380814671516, 0.019298499450087547, 0.05773378908634186, 0.10408223420381546, 0.10199063271284103, 0.09738906472921371, 0.1370658427476883, 0.19497688114643097, 0.23049689829349518, 0.1915215700864792, -0.016706110909581184, -0.14593374729156494, 0.0792202278971672, 0.26365479826927185, 0.22721260786056519, 0.16921363770961761, 0.19258524477481842, 0.06568283587694168, -0.05133029446005821, 0.06887108832597733, 0.08947101980447769, -0.030163463205099106, -0.028496049344539642, 0.023353317752480507, 0.03389059752225876, -0.028803950175642967, 0.0017806845717132092, 0.07516611367464066, -0.05790532007813454, 0.034699127078056335, 0.3098325729370117, 0.25510379672050476, 0.29952940344810486, 0.5050719380378723, 0.6240195035934448, 0.5351256132125854, 0.42327573895454407, 0.1793992966413498, -0.014393984340131283, 0.18792669475078583, 0.3191288113594055, 0.2155447155237198, 0.18362706899642944, 0.12739478051662445, -0.07360053062438965, 0.06604094058275223, 0.30047065019607544, 0.2429330199956894, 0.27295106649398804, 0.3094574213027954, 0.15132971107959747, 0.0037793901283293962, -0.02461441233754158, 0.0002053933567367494, -0.03402818366885185, 0.291197270154953, 0.0802261158823967, 0.19411295652389526, 0.08873108774423599, 0.2923663258552551, 0.09216965734958649, -0.03873588517308235, 0.17838706076145172, -0.10881505161523819, 0.03464873135089874, 0.16745111346244812, 0.14199380576610565, -0.04622946307063103, 0.0743124857544899, 0.18335260450839996, 0.018383346498012543, 0.09151840209960938, 0.09864742308855057, -0.38739776611328125, 0.14243726432323456, 0.3610800504684448, 0.4159594178199768, 0.17371711134910583, -0.08780651539564133, 0.07994405925273895, -0.024839675053954124, -0.009546514600515366, -0.03060530126094818, 0.05497388541698456, -0.34025609493255615, -0.1439410150051117, 0.2008284032344818, 0.34412503242492676, 0.1874796599149704, 0.2092880755662918, 0.16722698509693146, 0.11570890247821808, 0.10781313478946686, 0.13096855580806732, 0.0003648861893452704, -0.02284546196460724, -0.10289136320352554, 0.005933205597102642, -0.17999865114688873, -0.20330889523029327, 0.05574702471494675, -0.01428300142288208, -0.138578400015831, -0.0930364802479744, 0.24776805937290192, -0.009872402995824814, -0.05780323967337608, 0.0016687039751559496, 0.27842581272125244, 0.03157132863998413, -0.019978022202849388, 0.23789019882678986, -0.018819035962224007, 0.1325099617242813, 0.23272624611854553, 0.10000257939100266, 0.02415393479168415, 0.20513786375522614, 0.08259489387273788, 0.10666411370038986, 0.035862065851688385, 0.13463042676448822, 0.03332764282822609, 0.1432073563337326, 0.03233470395207405, 0.14083540439605713, 0.014603512361645699, -0.14075036346912384, -0.006882531102746725, -0.040622398257255554, 0.14796288311481476, 0.07057870924472809, 0.17926181852817535, 0.19038037955760956, 0.11007973551750183, 0.288889080286026, 0.2565533220767975, -0.02224223129451275, 0.20030537247657776, -0.1339273303747177, -0.1422271579504013, -0.044610533863306046, -0.10312925279140472, -0.1307532787322998, -0.04057259485125542, -0.031974680721759796, -0.06663508713245392, -0.12975412607192993, -0.1545950472354889, -0.12498410046100616, -0.15947787463665009, -0.06879211962223053, 0.22211883962154388, 0.19659799337387085, -0.049911316484212875, -0.13899041712284088, 0.025094283744692802, -0.20945784449577332, -0.3023405075073242, -0.0029810431879013777, -0.01903625763952732, 0.14699572324752808, 0.41487282514572144, 0.19411054253578186, 0.30023711919784546, 0.013434388674795628, 0.09200303256511688, -0.02042868733406067, -0.4475459158420563, -0.12779933214187622, -0.13618260622024536, -0.2989944815635681, 0.011062760837376118, -0.12309158593416214, -0.1228276938199997, -0.11010154336690903, -0.19035665690898895, -0.1954992562532425, -0.11139199137687683, 0.06462492793798447, 0.09012233465909958, 0.08196721225976944, 0.010629487223923206, -0.14941222965717316, -0.20906375348567963, -0.19702965021133423, -0.11406943202018738, -0.034120142459869385, -0.1916014701128006, 0.0004935212782584131, 0.34299755096435547, 0.07762317359447479, 0.28156769275665283, 0.11143799871206284, 0.23309309780597687, -0.10153552889823914, -0.3064962327480316, -0.04430007189512253, -0.11800561845302582, -0.20251396298408508, -0.06596677005290985, -0.2880241572856903, -0.06698419153690338, -0.05509854108095169, -0.16512401401996613, -0.11244101822376251, -0.01453013252466917, 0.012391680851578712, 0.05507214367389679, 0.059056252241134644, -0.025942614302039146, -0.24833449721336365, -0.20315919816493988, -0.12349677830934525, -0.29251188039779663, -0.22516581416130066, 0.09024319797754288, -0.18959078192710876, -0.16889162361621857, -0.047516245394945145, 0.14987018704414368, 0.04222547262907028, -0.16584718227386475, 0.022941917181015015, 0.041352491825819016, -0.23686803877353668, -0.07614091038703918, -0.1852981299161911, -0.11028826236724854, -0.11350242048501968, -0.0895470455288887, -0.1563730686903, -0.20624937117099762, -0.2221197932958603, -0.15712815523147583, -0.049609627574682236, 0.05130288377404213, 0.06707905977964401, -0.06001196429133415, -0.19759216904640198, -0.18085765838623047, -0.20710599422454834, -0.05650854855775833, 0.06348062306642532, 0.023973515257239342, -0.07065977156162262, -0.06581254303455353, 0.19997139275074005, 0.10354907810688019, 0.08161740005016327, -0.0703214630484581, 0.09366331249475479, -0.26872268319129944, -0.12196984142065048, 0.013380608521401882, -0.003638697322458029, -0.07945141941308975, 0.035364311188459396, 0.04714803770184517, 0.029981622472405434, -0.08888279646635056, -0.2743409276008606, -0.22791510820388794, -0.025940826162695885, 0.09866009652614594, 0.011147135868668556, -0.06439955532550812, -0.09873723983764648, -0.13689939677715302, -0.05998823046684265, 0.09069418162107468, -0.018292516469955444, -0.008263787254691124, -0.007218470331281424, -0.3002210259437561, 0.28040218353271484, 0.11583954840898514, 0.0681503564119339, 0.33844977617263794, -0.40925732254981995, -0.015459631569683552, 0.061348289251327515, 0.0437469407916069, 0.054933417588472366, 0.09366875886917114, 0.1635020226240158, 0.12717850506305695, -0.04519335553050041, -0.19594882428646088, -0.3640979826450348, -0.0140221593901515, 0.210352823138237, 0.0666343942284584, -0.13760864734649658, -0.31424203515052795, -0.28860142827033997, -0.128644660115242, 0.031694453209638596, 0.11465184390544891, 0.12998756766319275, 0.0991324931383133, 0.007769120391458273, 0.08985717594623566, -0.08231356739997864, 0.22939464449882507, -0.03423382714390755, -0.008467013947665691, -0.3402998745441437, 0.25717419385910034, -0.018390687182545662, -0.22151687741279602, -0.13347962498664856, 0.08967532962560654, 0.1248348206281662, 0.09884704649448395, -0.0053636240772902966, -0.17290759086608887, -0.17405268549919128, 0.08530475944280624, 0.19624042510986328, 0.01285418588668108, 0.031825803220272064, -0.12376842647790909, -0.3176153004169464, -0.0324508398771286, 0.21101245284080505, 0.20079874992370605, 0.23147204518318176, -0.0038100415840744972, 0.288980633020401, 0.3993827998638153, 0.2093408852815628, 0.21530187129974365, 0.13962231576442719, -0.14842575788497925, 0.19116702675819397, 0.24671797454357147, -0.19388705492019653, -0.1740601658821106, -0.04345114529132843, -0.19569410383701324, -0.13372087478637695, -0.1005527675151825, -0.15591001510620117, -0.06360312551259995, 0.17597156763076782, 0.33545783162117004, 0.15987460315227509, 0.26116469502449036, 0.05042986199259758, -0.2646911144256592, -0.1578119844198227, 0.12762205302715302, 0.1729292869567871, 0.13262614607810974, 0.07606668025255203, 0.12144235521554947, 0.23401552438735962, 0.03683418780565262, 0.44294044375419617, 0.05936215817928314, 0.19490820169448853, -0.13751403987407684, 0.03129258751869202, 0.15601399540901184, -0.2692744731903076, -0.06782042980194092, 0.025879686698317528, -0.08419580012559891, -0.2245492786169052, -0.28998368978500366, -0.1798190325498581, 0.13923044502735138, 0.39486321806907654, 0.3106854259967804, 0.39864102005958557, 0.23751981556415558, 0.09151411056518555, -0.15282081067562103, -0.08612041920423508, 0.007900310680270195, -0.06416590511798859, -0.08249634504318237, -0.008833298459649086, -0.12735167145729065, -0.05960553139448166, -0.14064054191112518, 0.4728426933288574, 0.16057856380939484, 0.14069776237010956, -0.06556525081396103, -0.02132268436253071, 0.36164385080337524, -0.3961395025253296, -0.11077519506216049, 0.03584730625152588, -0.05414191260933876, -0.2265421748161316, -0.0711614266037941, 0.03629113733768463, 0.3449343740940094, 0.3423607647418976, 0.4725058674812317, 0.44916075468063354, 0.18354831635951996, 0.06167425587773323, -0.11707465350627899, -0.06797482818365097, 0.025092821568250656, -0.18693168461322784, -0.23165225982666016, -0.1937793344259262, -0.28527823090553284, -0.1147860437631607, 0.017821060493588448, 0.028689837083220482, 0.3191448450088501, 0.0589696504175663, -0.034752726554870605, -0.1068374440073967, 0.1248667761683464, -0.1958359181880951, -0.10788562893867493, 0.032945841550827026, 0.20119798183441162, 0.060649972409009933, 0.29862475395202637, 0.23947186768054962, 0.28965750336647034, 0.30197373032569885, 0.28078076243400574, 0.2577947974205017, 0.19548875093460083, 0.06861917674541473, -0.06097568944096565, -0.09270801395177841, -0.04729599878191948, -0.2612711489200592, -0.06312862038612366, -0.038718681782484055, -0.09163479506969452, 0.002827463671565056, 0.24137336015701294, 0.20944957435131073, 0.16314034163951874, 0.022532885894179344, -0.14162978529930115, -0.026953160762786865, 0.14068923890590668, -0.0034017907455563545, 0.06554237753152847, 0.194370299577713, 0.11730945110321045, 0.19995355606079102, 0.23226365447044373, 0.3046606183052063, 0.28654786944389343, 0.1796053797006607, 0.035725828260183334, 0.10749045759439468, 0.05013992637395859, -0.03351077809929848, -0.09196734428405762, -0.05736372619867325, -0.16488732397556305, -0.1037977859377861, 0.0045248111709952354, 0.13713973760604858, -0.1232343465089798, -0.02603776380419731, 0.31391486525535583, 0.09962362796068192, 0.025737697258591652, 0.07244899868965149, -0.11587747931480408, -0.2254810482263565, 0.13314153254032135, 0.22018909454345703, 0.13330471515655518, 0.06518672406673431, 0.18464820086956024, 0.21923132240772247, 0.18130193650722504, 0.114328533411026, -0.038339052349328995, 0.12144643068313599, 0.02549874410033226, -0.08939038217067719, -0.08237829804420471, 0.03312073275446892, 0.04841829463839531, 0.04589236527681351, 0.01463434286415577, 0.04183531925082207, 0.009482501074671745, 0.0260143019258976, 0.03929165378212929, 0.18902979791164398, 0.44164764881134033, 0.13732874393463135, 0.4613713026046753, 0.008882596157491207, -0.27033403515815735, -0.25221091508865356, -0.09231739491224289, 0.18298357725143433, 0.018479039892554283, 0.1334494650363922, 0.07992362231016159, 0.06164014711976051, 0.1665075272321701, 0.13806992769241333, 0.0355781689286232, -0.182902529835701, -0.037350963801145554, -0.14970283210277557, 0.047473303973674774, 0.2304750233888626, 0.30154985189437866, 0.043265264481306076, -0.011059533804655075, 0.08822754770517349, -0.008292688056826591, 0.027241762727499008, 0.09826980531215668, -0.23009426891803741, 0.3083159625530243, 0.45951348543167114, 0.30687424540519714, -0.024923793971538544, -0.35280317068099976, -0.1093091294169426, -0.09035221487283707, -0.11805403232574463, -0.027640558779239655, 0.13698627054691315, 0.14267215132713318, 0.011439490132033825, -0.0004890510463155806, 0.06492483615875244, 0.023873958736658096, -0.08945681899785995, -0.06984551250934601, -0.1671905815601349, 0.05748262256383896, 0.09803846478462219, 0.13795851171016693, 0.04700573906302452, -0.013718913309276104, 0.07532089203596115, 0.08057435601949692, -0.0672190934419632, -0.024395117536187172, -0.27992820739746094, -0.07397940009832382, 0.21100950241088867, 0.04452090337872505, 0.1544983834028244, 0.08047551661729813, -0.12966647744178772, -0.14569009840488434, 0.05092552676796913, 0.007510567083954811, 0.1351577639579773, 0.21423271298408508, 0.006250978447496891, 0.06073077395558357, -0.09075646102428436, -0.09079164266586304, -0.04294881597161293, -0.016616635024547577, 0.02207004465162754, -0.035534050315618515, -0.04002745822072029, 0.054663222283124924, -0.0069253211840987206, 0.035382553935050964, 0.08559651672840118, 0.0023445445112884045, -0.10276315361261368, 0.1046069785952568, -0.26255762577056885, 0.023533063009381294, 0.3889555037021637, -0.009289605543017387, 0.09458646923303604, 0.04984358325600624, -0.14258407056331635, -0.008312122896313667, 0.09615978598594666, 0.10015618801116943, 0.06255914270877838, 0.11680782586336136, -0.017327040433883667, 0.04701975733041763, 0.0011579107958823442, 0.007040472701191902, 0.05802074074745178, -0.0010618965607136488, -0.08013440668582916, -0.017747024074196815, -0.04712923616170883, 0.00868899654597044, -0.0962882936000824, 0.144058957695961, 0.06464272737503052, -0.062144745141267776, -0.2045021653175354, -0.10548356175422668, -0.24116766452789307, -0.10529100894927979, -0.016406362876296043, -0.04548194631934166, -0.00652542756870389, -0.004353961907327175, 0.05127552151679993, -0.04155118018388748, 0.2594711184501648, -0.0698961466550827, -0.09572062641382217, -0.19118796288967133, -0.10689090937376022, -0.007973652333021164, -0.08858000487089157, -0.11700623482465744, 0.08871638029813766, 0.008632105775177479, -0.04455329105257988, -0.07387958467006683, -0.06008454039692879, -0.158528134226799, -0.13647742569446564, 0.0251200869679451, -0.024316441267728806, -0.1416022628545761, -0.056003354489803314, -0.1290639191865921, -0.4564730226993561, -0.15881212055683136, 0.022144999355077744, 0.01219718437641859, 0.012947287410497665, 0.014208006672561169, -0.03966574743390083, -0.3662097156047821, -0.4161359369754791, -0.3431805372238159, -0.3383026123046875, -0.29775354266166687, -0.14972664415836334, -0.08807752281427383, -0.11993066221475601, -0.08049289882183075, -0.15371306240558624, -0.15766671299934387, 0.03796975314617157, -0.0635998323559761, -0.07955458760261536, -0.2549249529838562, -0.139692485332489, -0.08376411348581314, -0.1986638903617859, -0.08244868367910385, -0.05485863238573074, -0.2097681760787964, -0.1374298334121704, 0.03376409783959389, 0.15762341022491455, 0.016173601150512695, -0.020851654931902885, 0.029407013207674026, -0.07083390653133392, 0.21036922931671143, -0.42653197050094604, -0.6310569047927856, -0.4160475730895996, -0.35810863971710205, -0.3362784683704376, -0.14097993075847626, 0.05415678396821022, -0.08704455196857452, -0.20816026628017426, -0.4559004008769989, -0.4223406910896301, -0.24895378947257996, -0.5939294099807739, -0.5466339588165283, -0.4645998179912567, -0.40651166439056396, -0.29992756247520447, -0.3848133087158203, -0.011162242852151394, 0.028892502188682556, -0.004552861209958792, -0.049674004316329956, 0.07700622826814651, -0.022433551028370857, 0.0012414711527526379, 0.001016880851238966, -0.03306764364242554, -0.2044125646352768, -0.523049533367157, -0.48274049162864685, -0.5726531744003296, -0.5724902749061584, -0.43418440222740173, -0.21531543135643005, -0.2276759296655655, -0.41103649139404297, -0.7957035899162292, -0.8010090589523315, -0.8585913181304932, -0.6462006568908691, -0.6883936524391174, -0.5311620235443115, -0.2546955645084381, -0.18646563589572906, -0.5984225869178772, -0.4647657871246338, -0.34588828682899475, -0.4410686492919922, -0.31303277611732483, 0.010209190659224987, 0.03479903191328049, 0.0030354901682585478, -0.014064389280974865, 0.00995770562440157, -0.02426212653517723, 0.013365278020501137, 0.1110624149441719, 0.15586897730827332, -0.25796812772750854, -0.23130227625370026, -0.28199875354766846, -0.19943469762802124, -0.14365531504154205, -0.3414790630340576, -0.4079616367816925, -0.47086969017982483, -0.5996848344802856, -0.3278595209121704, -0.33779165148735046, -0.42564597725868225, -0.45074132084846497, -0.4140055179595947, -0.2191605418920517, -0.09751321375370026, -0.11267729848623276, 0.2276173084974289, 0.00590108148753643, 0.019430434331297874, -0.00515560619533062, -0.005707493983209133, -0.023455599322915077, -0.01937205158174038, 0.031905341893434525, -0.01657038927078247, -0.019580194726586342, -0.02698572352528572, 0.026519741863012314, -0.002679982455447316, -0.012650171294808388, -0.03365146741271019, -0.021396787837147713, 0.033330757170915604, -0.1316710114479065, -0.12064195424318314, -0.012061536312103271, -0.023912595584988594, -0.016149377450346947, -0.02591637335717678, 0.013436705805361271, -0.025687461718916893, 0.031864337623119354, -0.004221899434924126, 0.032721810042858124, 0.007504740264266729, -0.008311263285577297, -0.010002953931689262, 0.010626627132296562, 0.0013943442609161139, 0.019425256177783012, -0.01435184944421053, 0.008320493623614311, 0.0255881380289793, -0.02379085123538971, -0.05810723453760147, -0.10620518773794174, -0.14126938581466675, -0.11097878962755203, -0.09116403013467789, -0.12359029054641724, 0.0687437430024147, -0.11617012321949005, -0.44163236021995544, -0.020069599151611328, 0.07111545652151108, -0.03786797448992729, -0.08812202513217926, 0.010847628116607666, -0.23796871304512024, -0.3280717432498932, -0.16081969439983368, -0.15685495734214783, -0.04722123220562935, 0.028329404070973396, 0.03224385529756546, -0.020196575671434402, 7.838010787963867e-06, 0.0025966211687773466, 0.009506992064416409, -0.10820095241069794, -0.03426098823547363, -0.10919545590877533, 0.051253791898489, -0.03516967594623566, -0.22855885326862335, 0.017726371064782143, 0.2253473550081253, 0.26693394780158997, -0.047123465687036514, 0.08333456516265869, 0.023718461394309998, -0.1739107370376587, 0.1405068039894104, 0.11006740480661392, -0.372816801071167, -0.6770243048667908, -0.7711060047149658, -0.5185686349868774, -0.3580666482448578, -0.22162160277366638, -0.11103475838899612, 0.11149588227272034, 0.18467187881469727, -0.015323461033403873, 0.009649872779846191, 0.032378602772951126, 0.025986051186919212, 0.2548994719982147, 0.19261321425437927, -0.05898208171129227, -0.13287769258022308, 0.12280961126089096, -0.03213832154870033, 0.10561558604240417, -0.016196325421333313, -0.04164313152432442, -0.11370940506458282, 0.06841365993022919, -0.07374133914709091, -0.3018466830253601, -0.3658238649368286, -0.3304356038570404, -0.2665536403656006, -0.5181561708450317, -0.4975039064884186, -0.5410035848617554, -0.9637990593910217, -0.57273930311203, -0.43036317825317383, -0.008346709422767162, 0.059217967092990875, -0.017331698909401894, -0.017373081296682358, -0.013665208593010902, 0.04345797002315521, 0.28090357780456543, 0.06900884956121445, 0.012929486110806465, 0.08123402297496796, 0.26818686723709106, 0.16041110455989838, 0.2688397467136383, -0.1536536067724228, 0.04198559746146202, 0.14497531950473785, 0.1328728049993515, 0.23886796832084656, -0.04804583266377449, -0.034360554069280624, -0.1610528975725174, -0.34927859902381897, -0.328367680311203, -0.370446115732193, -0.4093608558177948, -0.14701668918132782, -0.4586695730686188, -0.5632241368293762, -0.39720919728279114, -0.35186704993247986, -0.2664860188961029, -0.10144142061471939, 0.034618549048900604, 0.0299155805259943, 0.23119688034057617, 0.3222907781600952, 0.41135093569755554, 0.19309744238853455, 0.23250913619995117, 0.20222744345664978, 0.1308896541595459, -0.013796614482998848, 0.09821990132331848, 0.11202500760555267, 0.17976589500904083, 0.1145431399345398, -0.04293537139892578, 0.1619003415107727, -0.13425226509571075, -0.28798794746398926, -0.1308704912662506, -0.3614921569824219, -0.6171615719795227, -0.4766102135181427, -0.502907931804657, -0.6478149890899658, -0.47473645210266113, -0.4665142297744751, -0.36894258856773376, -0.0820743516087532, -0.011903520673513412, -0.037258487194776535, -0.24515771865844727, 0.41385847330093384, 0.04214803874492645, -0.29385432600975037, 0.08576594293117523, 0.14085753262043, 0.0901540145277977, 0.16774752736091614, 0.07254652678966522, 0.07448583841323853, 0.14975902438163757, 0.08856213092803955, 0.03391457721590996, -0.04874633625149727, 0.025555286556482315, -0.07475429773330688, -0.18932665884494781, -0.5629780888557434, -0.7741024494171143, -0.5516892671585083, -0.7068663239479065, -0.6940828561782837, -0.4224730432033539, -0.19326560199260712, -0.4009145498275757, -0.13513270020484924, 0.022486800327897072, 0.13831990957260132, -0.06765487045049667, 0.4840428829193115, 0.12205671519041061, -0.17079149186611176, 0.10623621940612793, -0.14198362827301025, 0.07126977294683456, 0.12337513267993927, -0.07397082448005676, 0.05946264788508415, 0.04980190098285675, 0.03983692079782486, 0.12370213121175766, 0.09216246008872986, 0.17251452803611755, -0.06311771273612976, -0.2569108307361603, -0.5061932802200317, -0.6164398193359375, -0.6182897686958313, -0.7033349275588989, -0.6009086966514587, -0.2329976111650467, 0.009464297443628311, -0.4592939615249634, -0.24642784893512726, -0.19092145562171936, 0.1494448035955429, -0.07160259038209915, 0.04155570641160011, 0.2984427511692047, -0.00029158603865653276, -0.23622986674308777, -0.24614711105823517, 0.024710901081562042, -0.060921866446733475, 0.02975742518901825, -0.11719655990600586, -0.11631286144256592, 0.05974771827459335, 0.33035269379615784, 0.3834802508354187, 0.22399520874023438, -0.020361779257655144, -0.3352096378803253, -0.5692296028137207, -0.6589076519012451, -0.6836562752723694, -0.5014061331748962, -0.5888837575912476, -0.41232186555862427, -0.2153788059949875, -0.18776454031467438, -0.22233997285366058, -0.014857983216643333, -0.10831540077924728, 0.12639190256595612, -0.0068163215182721615, 0.0058251661248505116, 0.05982965603470802, -0.30281418561935425, -0.24716293811798096, -0.2780383825302124, -0.23873957991600037, -0.12364131212234497, -0.09765546023845673, 0.05764051899313927, 0.17347444593906403, 0.41246461868286133, 0.5997627973556519, 0.34382155537605286, 0.014616717584431171, -0.423934668302536, -0.6615204811096191, -0.8052000999450684, -0.6471831202507019, -0.5977272987365723, -0.3975996971130371, 0.03415937349200249, -0.0666174590587616, 0.06939492374658585, 0.1690223067998886, 0.01720253750681877, -0.05345501750707626, 0.06461981683969498, -0.06401602178812027, -0.2412060648202896, -0.07070290297269821, -0.02890808694064617, -0.04384845122694969, -0.29298916459083557, -0.2300483137369156, 0.023221556097269058, -6.680718070128933e-05, 0.09597770869731903, 0.3052607774734497, 0.5589969158172607, 0.5146983861923218, 0.4739474058151245, 0.11696705222129822, -0.451435387134552, -0.7928826212882996, -0.9821038842201233, -0.5847514867782593, -0.2678351402282715, -0.13189183175563812, -0.029210176318883896, 0.08295919001102448, 0.24121470749378204, 0.38541316986083984, 0.03348688781261444, 0.01806778647005558, 0.06961677968502045, 0.03018420748412609, -0.07590590417385101, -0.0508863590657711, -0.06452964246273041, 0.007752020377665758, -0.10470757633447647, 0.003093033330515027, 0.19478236138820648, 0.1451086401939392, 0.16547809541225433, 0.2031700611114502, 0.4296775162220001, 0.3024049997329712, 0.23804472386837006, 0.12857097387313843, -0.25563424825668335, -0.6454210877418518, -0.528144121170044, -0.31268975138664246, -0.1927952766418457, -0.1418275088071823, -0.4056451618671417, -0.06736695766448975, 0.047596562653779984, 0.34979984164237976, 0.030659113079309464, 0.036163829267024994, 0.148684561252594, -0.02576827071607113, -0.05059099942445755, -0.09774041175842285, -0.2952699661254883, -0.1392434537410736, -0.0006347875460051, 0.15402452647686005, 0.15191088616847992, -0.029134100303053856, 0.09576635807752609, 0.22548221051692963, 0.3169673681259155, 0.21660299599170685, 0.2408488690853119, 0.07613448053598404, -0.0616365484893322, -0.4712226688861847, -0.448848694562912, -0.19240565598011017, -0.34935706853866577, -0.4715786278247833, 0.1270151436328888, 0.45224499702453613, 0.14050553739070892, 0.32971054315567017, 0.1696094572544098, 0.0625896155834198, 0.17189918458461761, -0.04210636019706726, 0.1042933389544487, -0.3153650760650635, -0.04172492399811745, -0.17123287916183472, -0.03411998599767685, 0.1493309587240219, 0.08523733168840408, 0.027475832030177116, -0.03764239698648453, 0.16284064948558807, 0.2040109783411026, 0.13972696661949158, 0.25627973675727844, 0.18007227778434753, -0.03545127063989639, -0.41524016857147217, -0.44842496514320374, -0.13762825727462769, -0.05605669692158699, -0.07400751858949661, 0.2230616807937622, 0.6064004898071289, 0.36971592903137207, 0.055046603083610535, -0.18122181296348572, 0.0408620685338974, 0.18656763434410095, 0.3861868977546692, 0.07919047027826309, -0.30291563272476196, -0.22572144865989685, -0.22146406769752502, -0.047448378056287766, -0.013914608396589756, -0.05743037909269333, -0.16922368109226227, 0.024432295933365822, 0.12742649018764496, 0.15224085748195648, 0.14320465922355652, 0.13998669385910034, 0.08280891925096512, -0.17958340048789978, -0.22454959154129028, -0.2557593882083893, -0.13829953968524933, 0.04243640601634979, 0.17920339107513428, 0.015179379843175411, 0.4246228337287903, 0.7466017603874207, 0.14729389548301697, -0.15175297856330872, 0.06177206709980965, 0.11020990461111069, 0.34035468101501465, -0.05956863611936569, -0.29653316736221313, -0.3133309483528137, -0.2687305510044098, -0.08309905976057053, -0.0869700089097023, -0.07692152261734009, -0.09843508899211884, -0.05998202785849571, 0.14803826808929443, 0.14439673721790314, 0.21438375115394592, 0.21263235807418823, 0.040870390832424164, -0.4226265847682953, -0.26346465945243835, 0.026997676119208336, 0.0031129634007811546, 0.10606749355792999, 0.19671572744846344, 0.05079636350274086, -0.0539436973631382, 0.45705971121788025, 0.4651118516921997, 0.09257985651493073, 0.04167007654905319, 0.2312185913324356, 0.1679854542016983, -0.06228009611368179, -0.4149719476699829, -0.18337006866931915, 0.11404942721128464, 0.1995389759540558, 0.1736689656972885, 0.010715886950492859, 0.10168004781007767, -0.039488404989242554, -0.010144395753741264, 0.15174630284309387, 0.04726073145866394, 0.11371543258428574, -0.25731077790260315, -0.25740858912467957, -0.25346702337265015, -0.11475490033626556, 0.03187010809779167, 0.10304157435894012, 0.25204166769981384, 0.23790282011032104, -0.2297985702753067, 0.5982692837715149, 0.4589727818965912, 0.006757749244570732, 0.13698825240135193, 0.07105293869972229, -0.12138451635837555, -0.22044828534126282, -0.22025738656520844, 0.026400253176689148, -0.06883130967617035, 0.1418675035238266, 0.171885684132576, -0.03121134452521801, -0.07933959364891052, 0.044102445244789124, 0.1208864152431488, 0.21475926041603088, -0.037686627358198166, -0.11028602719306946, -0.19863195717334747, -0.17410516738891602, -0.14207305014133453, -0.11825628578662872, -0.02967728301882744, 0.07466373592615128, 0.12777049839496613, 0.13537560403347015, 0.17977522313594818, 0.34368646144866943, 0.3869408667087555, 0.23777171969413757, 0.1476576328277588, 0.2253098040819168, -0.12125425785779953, 0.02186480350792408, -0.05267823114991188, -0.052614688873291016, -0.017528269439935684, 0.04055104777216911, 0.10343458503484726, -0.021565314382314682, -0.06795630604028702, -0.18412351608276367, -0.006161737721413374, 0.01763882488012314, -0.17396210134029388, -0.2298339158296585, -0.0497850738465786, -0.03794039413332939, -0.01887664943933487, -0.0009075505076907575, 0.03740949556231499, 0.22492413222789764, 0.050072718411684036, 0.06496056914329529, 0.1874818354845047, 0.2274802178144455, 0.39824795722961426, 0.12640748918056488, 0.18722431361675262, -0.20907333493232727, -0.24775061011314392, 0.037026867270469666, -0.00935337319970131, -0.12740382552146912, 0.06680291891098022, -0.08602452278137207, -0.04143759235739708, -0.16878220438957214, -0.33175018429756165, -0.15998227894306183, 0.025202693417668343, -0.02656938135623932, -0.13266706466674805, -0.1114744022488594, -0.1641044020652771, 0.012054359540343285, -0.016550123691558838, 0.00860880222171545, -0.02350686676800251, 0.1442074477672577, 0.0049830530770123005, 0.014355299063026905, 0.0715598464012146, 0.3622782826423645, 0.2953622043132782, 0.023757798597216606, -0.1902252584695816, -0.3158257007598877, -0.08458727598190308, -0.18360058963298798, -0.16659335792064667, 0.05147763341665268, 0.13598965108394623, -0.018670672550797462, -0.07411673665046692, -0.18306981027126312, -0.11173903197050095, 0.057162296026945114, -0.00360893364995718, 0.08384332060813904, -0.1570139229297638, 0.03306838870048523, -0.025616198778152466, -0.0590178407728672, -0.12386620789766312, 0.008475805632770061, 0.029217178001999855, 0.019668659195303917, 0.0787133127450943, 0.05625200644135475, -0.08173279464244843, 0.23371580243110657, 0.13459636270999908, 0.13474348187446594, 0.09468670189380646, -0.09318371117115021, 0.10402145236730576, -0.029646335169672966, -0.13114865124225616, -0.13514059782028198, 0.025537731125950813, 0.03473619744181633, -0.012727469205856323, -0.010911489836871624, -0.02659796178340912, -0.033503565937280655, -0.0411805622279644, 0.03217236325144768, -0.015846973285079002, 0.061947792768478394, -0.17872922122478485, -0.08693985641002655, -0.04911677911877632, -0.11740755289793015, -0.10050686448812485, -0.005500549916177988, -0.00015642383368685842, -0.0686819925904274, -0.11217378824949265, -0.2619036138057709, 0.008179066702723503, 0.1314244419336319, 0.09826552122831345, 0.07177726179361343, 0.27634355425834656, 0.23332402110099792, 0.18476949632167816, 0.0689428448677063, 0.11096227914094925, 0.06316336244344711, -0.05829353258013725, -0.05244894698262215, -0.16545020043849945, -0.12336422502994537, -0.005021085496991873, 0.06800368428230286, -0.09429233521223068, -0.10267700254917145, -0.18729595839977264, 0.040807370096445084, -0.02717864327132702, 0.030443701893091202, -0.043130889534950256, -0.09125299751758575, -0.14615830779075623, -0.002256896812468767, 0.04208153113722801, -0.31414085626602173, -0.024271143600344658, 0.0036251461133360863, 0.02413376048207283, -0.013605820015072823, 0.12366227060556412, 0.1671370565891266, 0.0429082065820694, -0.07108297944068909, 0.13190069794654846, -0.03787446767091751, -0.12467031925916672, -0.06812363117933273, 0.002068436937406659, 0.06478332728147507, 0.15356090664863586, -0.022899070754647255, -0.04893694445490837, -0.13207204639911652, 0.039922941476106644, -0.07539988309144974, -0.124105304479599, -0.06448841094970703, 0.10411839187145233, -0.15622541308403015, -0.20174619555473328, -0.09472310543060303, -0.19016161561012268, -0.11824572831392288, -0.03167907893657684, 0.03161685913801193, 0.0012866088654845953, -0.021933747455477715, 0.03747083991765976, 0.3336030840873718, 0.24443072080612183, -0.18813246488571167, -0.01564062014222145, -0.08869528025388718, -0.19003380835056305, -0.034197524189949036, 0.040756817907094955, -0.22235992550849915, -0.1563435047864914, -0.13574530184268951, -0.18425758183002472, -0.2413930743932724, 0.02575923129916191, -0.049380939453840256, 0.08480140566825867, 0.006994925439357758, 0.2875814735889435, 0.13461488485336304, -0.142096608877182, -0.264944851398468, 0.2147974669933319, 0.12638717889785767, -0.012302054092288017, -0.029253961518406868, -0.017738282680511475, 0.022100500762462616, -0.07934151589870453, 0.2900240123271942, 0.35749348998069763, 0.14786504209041595, 0.23415809869766235, 0.5033515095710754, -0.13503283262252808, -0.17466047406196594, -0.1042288988828659, -0.2512873709201813, -0.042443279176950455, 0.1422494798898697, 0.08585461974143982, -0.0010142415994778275, 0.1748090386390686, 0.033632636070251465, -0.26123014092445374, -0.07121222466230392, -0.05412561073899269, -0.16671395301818848, -0.27916520833969116, -0.29919981956481934, 0.07277428358793259, 0.0769573375582695, 0.03191741183400154, -0.005620207171887159, 0.008975502103567123, -0.028243722394108772, 0.0789259746670723, 0.1332840770483017, 0.15783120691776276, 0.2614522874355316, 0.4586067199707031, 0.22640053927898407, 0.3027372360229492, 0.45134294033050537, 0.45713508129119873, 0.49484342336654663, 0.1362532675266266, 0.36000680923461914, 0.19728007912635803, 0.04656829312443733, 0.2948450744152069, 0.21824787557125092, 0.09021487832069397, 0.11083606630563736, 0.01662874035537243, -0.014782559126615524, 0.2601565718650818, 0.19328711926937103, 0.023920610547065735, -0.03339416906237602, -0.02822200022637844, 0.011236119084060192, -0.004310216289013624, -0.026863452047109604, -0.01624523475766182, 0.018158888444304466, -0.025847623124718666, 0.11369287967681885, 0.10870017111301422, 0.11900359392166138, 0.1614379733800888, 0.29055315256118774, 0.1366405487060547, 0.0012295916676521301, 0.13924185931682587, 0.5378807783126831, 0.4288759231567383, 0.3968234360218048, 0.4159441888332367, 0.45914342999458313, 0.3731330335140228, 0.34079983830451965, 0.31078484654426575, 0.2802963852882385, 0.10935172438621521, 0.030191056430339813, 0.02607673965394497, 0.015241683460772038, -0.02331675961613655, -0.030530080199241638, 0.022690139710903168, -0.03422047570347786, -0.02064509131014347, -0.010748280212283134, 0.03064551204442978, -0.004474921151995659, -0.012699553743004799, 0.023050211369991302, 0.0008835920598357916, 0.011467206291854382, 0.003104137722402811, 0.13699938356876373, 0.03512619435787201, -0.06899156421422958, -0.05509742721915245, -0.0131089948117733, 0.030448630452156067, -0.03427654504776001, -0.03172362968325615, 0.013844703324139118, 0.003624000819399953, 0.03099760040640831, -0.01934802532196045, -0.017043335363268852, 0.018102426081895828, -0.034463636577129364, -0.013194565661251545, 0.0050204056315124035, -0.02628471329808235, 0.012363451533019543, 0.012319774366915226, 0.018755825236439705, 0.017446769401431084, 0.13118652999401093, 0.1808818131685257, 0.25265488028526306, 0.2682470679283142, 0.2481384128332138, 0.17151235044002533, 0.4198456406593323, 0.3673799932003021, -0.024085044860839844, -0.020534299314022064, 0.29137295484542847, 0.5237927436828613, 0.4189987778663635, 0.4120868444442749, 0.4939784109592438, 0.3811698853969574, 0.29311493039131165, 0.19886082410812378, -0.006231406237930059, -0.017363114282488823, 0.005192875862121582, -0.02189348079264164, -0.016016244888305664, -0.00015547871589660645, 0.13171131908893585, 0.2727054953575134, 0.13495509326457977, 0.023899201303720474, 0.09439954161643982, 0.2243817001581192, 0.01151110976934433, -0.11553969234228134, -0.04859480634331703, 0.17873439192771912, 0.09844611585140228, -0.15398743748664856, 0.15296201407909393, -0.027843821793794632, 0.055934518575668335, 0.2387252151966095, 0.29567351937294006, -0.06967833638191223, 0.058131586760282516, 0.24621418118476868, 0.42625242471694946, 0.15794524550437927, -0.0493449829518795, -0.08715832978487015, -0.004157432820647955, 0.0131575558334589, 0.024875236675143242, -0.01630769483745098, -0.2631080448627472, -0.10480030626058578, -0.10373087972402573, 0.3383786976337433, 0.34526440501213074, 0.3749425709247589, 0.08724825084209442, 0.014240885153412819, 0.08690410852432251, 0.2840173840522766, -0.17744514346122742, -0.04936156049370766, 0.24685905873775482, 0.14093440771102905, 0.13271155953407288, -0.05593511462211609, -0.1028747633099556, -0.08768904954195023, -0.05833766609430313, 0.16436655819416046, 0.19181568920612335, 0.43033504486083984, 0.03962165489792824, -0.2114305943250656, 0.008223435841500759, -0.028656885027885437, -0.01304206345230341, 0.02975618652999401, -0.24068598449230194, -0.30676335096359253, 0.5006530284881592, 0.314717561006546, 0.030578801408410072, 0.17656874656677246, 0.16685111820697784, 0.08973871916532516, 0.02902454137802124, -0.16891929507255554, -0.07548321038484573, -0.16635964810848236, -0.0904497429728508, -0.021099822595715523, 0.13186334073543549, 0.13753238320350647, 0.05380633473396301, 0.17826911807060242, 0.19714371860027313, 0.20496414601802826, 0.24399009346961975, 0.22795426845550537, 0.07314397394657135, -0.08927662670612335, 0.05142856761813164, 0.34661930799484253, -0.02890545316040516, -0.02310294844210148, -0.04122565686702728, -0.17261134088039398, 0.371826708316803, -0.006229540798813105, -0.052583251148462296, -0.06260982155799866, -0.122250996530056, -0.284819096326828, -0.011967506259679794, -0.006162955891340971, -0.015238603577017784, 0.00243183015845716, 0.041387978941202164, -0.05751701816916466, -0.045941080898046494, -0.051945384591817856, -0.07250344008207321, 0.02080274559557438, 0.027598075568675995, 0.029774045571684837, -0.053769584745168686, 0.10969322174787521, 0.16506986320018768, 0.035759467631578445, 0.19293440878391266, 0.3014925420284271, -9.151867561740801e-05, -0.16867434978485107, 0.12380201369524002, -0.054854486137628555, 0.12568826973438263, -0.1272914707660675, -0.0735972672700882, 0.009129214100539684, -0.13581731915473938, -0.22577016055583954, -0.15033122897148132, 0.06789616495370865, -0.12411554902791977, -0.054321084171533585, -0.13875290751457214, -0.1322959065437317, -0.13057684898376465, -0.20823243260383606, -0.2513323724269867, -0.004293488338589668, 0.0826365128159523, 0.040332239121198654, 0.05649115890264511, 0.07831642031669617, 0.007274211384356022, -0.12593618035316467, -0.05630240961909294, 0.24403315782546997, 0.01067996397614479, -0.15433529019355774, 0.13606524467468262, -0.14876769483089447, -0.01161001343280077, -0.03139727935194969, -0.07436307519674301, -0.21102474629878998, -0.2865734398365021, -0.111566923558712, -0.04304268956184387, -0.02198086865246296, -0.0630263015627861, -0.07356012612581253, -0.2953130304813385, -0.1286279261112213, -0.16313232481479645, -0.05642646178603172, -0.06949256360530853, 0.05662943050265312, 0.06183160841464996, 0.14954718947410583, 0.1260606050491333, 0.06312508881092072, 0.02483132667839527, -0.23721987009048462, 0.0810382217168808, 0.16769245266914368, 0.2852276563644409, -0.24682402610778809, 0.136353999376297, -0.1513938158750534, -0.07288263738155365, -0.06311343610286713, -0.05555569380521774, -0.12557339668273926, -0.10326085984706879, 0.10753218829631805, -0.0755496397614479, -0.03151698410511017, -0.014329885132610798, 0.05063100531697273, -0.18200702965259552, -0.20171307027339935, -0.00722203403711319, -0.11653821915388107, -0.16092932224273682, 0.03130071982741356, 0.0024808247108012438, 0.247574582695961, -0.021569887176156044, -0.2703971862792969, -0.06148655340075493, -0.1733771413564682, 0.26544657349586487, -0.10477374494075775, -0.025303876027464867, -0.04416719451546669, 0.2044495940208435, -0.13551749289035797, -0.2689990699291229, -0.2885582745075226, 0.03447456657886505, -0.010921389795839787, -0.04061790928244591, 0.12938542664051056, -0.061988331377506256, -0.0417734794318676, -0.09554018825292587, 0.012568825855851173, -0.09294574707746506, -0.07998950034379959, -0.05433397367596626, -0.15051595866680145, -0.1830836832523346, 0.03464769572019577, 0.11095467954874039, 0.08121973276138306, -0.2789420485496521, -0.10956165194511414, 0.1017085611820221, -0.05542953312397003, -0.2066555619239807, -0.34632495045661926, -0.035755984485149384, -0.04233564808964729, -0.223053440451622, 0.15293899178504944, -0.23312029242515564, -0.07880548387765884, 0.08443794399499893, 0.10442089289426804, 0.005566094070672989, 0.07940702140331268, 0.0005659937742166221, -0.12154216319322586, -0.16055482625961304, -0.10148941725492477, -0.029228439554572105, -0.14644838869571686, -0.2802307903766632, -0.18476413190364838, -0.16781918704509735, -0.10649614781141281, -0.004172064363956451, -0.08534001559019089, 0.009567330591380596, 0.17056585848331451, 0.03807680308818817, -0.29447802901268005, -0.49316132068634033, -0.2293456643819809, -0.01392557006329298, -0.025608878582715988, -0.040937814861536026, -0.14224015176296234, -0.2767956852912903, -0.03230554983019829, 0.22644487023353577, 0.23760904371738434, 0.23682263493537903, 0.2829739451408386, 0.09034594148397446, -0.015245549380779266, -0.11051741987466812, -0.19298911094665527, -0.088223397731781, -0.15191170573234558, -0.24862933158874512, -0.16002550721168518, -0.2503463327884674, -0.10392026603221893, -0.0516122505068779, 0.08383142948150635, 0.07409663498401642, 0.017603032290935516, 0.1087002158164978, -0.11022058874368668, -0.07575929164886475, -0.2772930860519409, -0.07299213856458664, -0.0751565545797348, 0.11622082442045212, -0.2033906877040863, -0.14124435186386108, 0.06271470338106155, 0.2540920376777649, 0.25374722480773926, 0.159947469830513, 0.2024950087070465, 0.13033688068389893, 0.03074103221297264, -0.2435360997915268, -0.2442365288734436, -0.3552532196044922, -0.26966652274131775, -0.1540704220533371, -0.03185845538973808, -0.11416089534759521, 0.07075568288564682, 0.056358300149440765, 0.3007459342479706, 0.18805789947509766, 0.39329442381858826, 0.26426708698272705, -0.34715935587882996, -0.4681895077228546, -0.35500597953796387, -0.15579864382743835, 0.02354622259736061, -0.22313718497753143, -0.4240349531173706, -0.13213135302066803, -0.0012960606254637241, 0.1262386590242386, 0.24797256290912628, 0.23667465150356293, 0.2801111936569214, 0.3056037127971649, 0.01774701662361622, -0.25152936577796936, -0.2053821086883545, -0.19812427461147308, -0.09821677207946777, -0.07847031205892563, 0.048912737518548965, 0.1607624590396881, 0.2673516869544983, 0.1568615436553955, 0.1487763524055481, 0.3826804757118225, 0.3898446559906006, -0.11903709173202515, -0.21603672206401825, -0.41935253143310547, -0.01330195739865303, -0.04135342314839363, -0.048159271478652954, -0.32281550765037537, -0.5417649745941162, -0.3337624669075012, 0.0286421962082386, 0.04300207644701004, 0.2062799483537674, 0.19656820595264435, 0.3680148422718048, 0.3873789310455322, 0.20408636331558228, -0.0065495939925313, 0.03488954156637192, -0.09191937744617462, -0.08274952322244644, -0.047936517745256424, 0.09858255833387375, 0.1732528656721115, 0.2055196613073349, 0.13704271614551544, 0.25275859236717224, 0.21086518466472626, -0.03485366702079773, -0.06425134837627411, 0.13021263480186462, -0.33180907368659973, -0.11181624978780746, -0.10274657607078552, 0.07516095042228699, -0.22135137021541595, -0.4184410870075226, -0.1386689394712448, -0.15124677121639252, -0.0059502823278307915, 0.1409817785024643, 0.1972746104001999, 0.18107487261295319, 0.2069627195596695, 0.15314048528671265, 0.20906667411327362, 0.09243467450141907, 0.03681414574384689, -0.03045712225139141, 0.046498361974954605, 0.07614889740943909, 0.09331818670034409, 0.08321981877088547, 0.01924816705286503, 0.14858371019363403, 0.19582661986351013, 0.0680915117263794, -0.20528797805309296, 0.21364915370941162, -0.1415553092956543, -0.2011149823665619, -0.0314277783036232, -0.012124340981245041, -0.241172656416893, -0.2911808490753174, -0.06454136222600937, -0.08877982199192047, 0.09108749032020569, 0.09332872182130814, 0.1697736233472824, 0.07575376331806183, 0.13522228598594666, 0.268483966588974, 0.24714332818984985, 0.08236534893512726, 0.041834596544504166, 0.03420161455869675, 0.063703253865242, 0.02063440904021263, 0.0719679668545723, -0.014941715635359287, -0.07680664211511612, -0.12174469977617264, -0.039903298020362854, 0.053994353860616684, -0.014159098267555237, 0.28166526556015015, -0.2266160100698471, -0.07728467136621475, -0.009245630353689194, -0.07904081046581268, -0.09312356263399124, -0.29774001240730286, -0.08395985513925552, -0.19109569489955902, -0.1701440066099167, 0.1156873032450676, 0.1332056224346161, 0.098717600107193, 0.07605902850627899, 0.08961480855941772, 0.20882736146450043, 0.06218840554356575, 0.10492793470621109, 0.1705794483423233, 0.2682643532752991, 0.08174775540828705, -0.09947444498538971, -0.08260367810726166, -0.1860983520746231, -0.07499263435602188, 0.02519742026925087, 0.18112722039222717, 0.11607252061367035, 0.1692102551460266, -0.12406899780035019, 0.1888783574104309, -0.26584917306900024, -0.037627942860126495, -0.2359974980354309, -0.09850046783685684, -0.08690918236970901, -0.3917354345321655, -0.10585463792085648, 0.055782757699489594, 0.07163459062576294, 0.04352818429470062, 0.021778158843517303, -0.020917993038892746, 0.20355579257011414, 0.16684530675411224, 0.17771930992603302, 0.3506123721599579, 0.1786533147096634, 0.007239112630486488, -0.0875803604722023, -0.05985655263066292, -0.15103213489055634, -0.07947388291358948, 0.038907092064619064, 0.16382668912410736, -0.055073417723178864, 0.0051704584620893, -0.45530879497528076, -0.26922979950904846, -0.09482786059379578, -0.11657357960939407, -0.24788159132003784, 0.12593217194080353, -0.19273149967193604, -0.22599218785762787, -0.2308403104543686, 0.020955661311745644, 0.04213261976838112, 0.10871816426515579, 0.1824149340391159, 0.14127588272094727, 0.10708543658256531, 5.466858610247982e-08, 0.22071263194084167, 0.22519241273403168, 0.07532893866300583, 0.012359697371721268, 0.07776166498661041, 0.00994468480348587, -0.19525866210460663, -0.06308254599571228, 0.002234811196103692, 0.08149054646492004, 0.01414170116186142, -0.20975181460380554, -0.15859924256801605, -0.1411687135696411, 0.023292388767004013, 0.3223991096019745, 0.03804982081055641, -0.05995788052678108, -0.3202958405017853, -0.30324479937553406, -0.35791686177253723, -0.11488275229930878, -0.11688850075006485, 0.013342075049877167, 0.16497205197811127, 0.08944261819124222, 0.09742827713489532, 0.06205885484814644, 0.12981125712394714, 0.2542012333869934, -0.054431814700365067, 0.028997525572776794, 0.15707716345787048, -0.07493314892053604, -0.11539842933416367, -0.12646067142486572, -0.16263911128044128, -0.11690712720155716, 0.07768170535564423, 0.032124366611242294, 0.01655888557434082, -0.09542737156152725, -0.11087917536497116, -0.11255750805139542, -0.24966008961200714, -0.011677234433591366, -0.34402918815612793, -0.36673468351364136, -0.25148433446884155, -0.0562729574739933, 0.11299973726272583, 0.15377528965473175, 0.10454272478818893, 0.1612209677696228, 0.24889715015888214, 0.1883535087108612, 0.12193293124437332, 0.12493237853050232, -0.09299669414758682, -0.021468564867973328, -0.002875244477763772, -0.012476924806833267, -0.2883206605911255, -0.4666695296764374, -0.06438911706209183, -0.05003197118639946, -0.19587868452072144, -0.2893184423446655, 0.23917143046855927, 0.02511971816420555, -0.12026620656251907, -0.08233760297298431, 0.018640896305441856, -0.09838202595710754, -0.3191775679588318, -0.2659303843975067, -0.22189079225063324, -0.08378905057907104, -0.06700074672698975, -0.06720669567584991, 0.04737495258450508, 0.10418136417865753, 0.22447475790977478, 0.15063706040382385, 0.11246144771575928, 0.12332566827535629, -0.05613178387284279, -0.13658176362514496, -0.10873977839946747, -0.15125247836112976, -0.2853962481021881, -0.2844729721546173, 0.019550085067749023, -0.07666579633951187, -0.08927605301141739, -0.13389672338962555, -0.19049598276615143, 0.011737395077943802, -0.003012533765286207, -0.012070264667272568, -0.006478870753198862, -0.25977540016174316, -0.16532652080059052, -0.19032062590122223, -0.2398422807455063, -0.22170983254909515, 0.045397982001304626, -0.2557026445865631, -0.24040643870830536, -0.10113606601953506, -0.08371465653181076, 0.0015625333180651069, -0.043842464685440063, -0.0509670227766037, -0.1367369294166565, -0.09842127561569214, 0.1216656044125557, -0.06808402389287949, -0.18563035130500793, -0.17192664742469788, -0.22347690165042877, -0.050121162086725235, -0.08155601471662521, -0.20598764717578888, -0.3513517677783966, 0.011701962910592556, -0.010924476198852062, -0.0254292581230402, -0.1263798475265503, 0.15553800761699677, 0.07290644198656082, -0.1434980183839798, -0.06137765944004059, -0.11672573536634445, -0.09369926899671555, -0.20952360332012177, -0.23411422967910767, -0.01987505331635475, -0.014827064238488674, -0.05655505508184433, -0.13497571647167206, -0.08865207433700562, 0.040819402784109116, -0.2114868462085724, 0.008263043127954006, -0.20780867338180542, -0.06338988989591599, -0.31008243560791016, -0.2845127284526825, -0.06548276543617249, -0.3371451199054718, 0.032895997166633606, -0.11517613381147385, 0.0021282690577208996, -0.029162786900997162, -0.029768800362944603, 0.2581464648246765, -0.3305712640285492, 0.10515717417001724, 0.1750066727399826, 0.18006764352321625, 0.07420080900192261, 0.06177122890949249, 0.008514001034200191, 0.04938877001404762, 0.06998653709888458, -0.22429995238780975, -0.027679529041051865, -0.10530424863100052, -0.007924511097371578, 0.04946427047252655, -0.05977576598525047, 0.14290249347686768, 0.26538553833961487, 0.039122503250837326, -0.3017793893814087, -0.32570186257362366, -0.22306612133979797, -0.3374958336353302, 0.04732586815953255, -0.0795731320977211, 0.02133362367749214, 0.03123573400080204, -0.0210220105946064, -0.014324669726192951, 0.10145274549722672, 0.4113537073135376, 0.360039085149765, 0.33103352785110474, 0.2171877771615982, 0.21883875131607056, 0.022572357207536697, -0.0508732832968235, 0.07219749689102173, 0.16829213500022888, 0.03400339186191559, 0.10538583993911743, 0.007235127501189709, 0.0660194531083107, 0.03276662528514862, 0.03405566141009331, 0.039241939783096313, 0.050917208194732666, -0.10199286788702011, -0.17290563881397247, 0.29312771558761597, 0.2701013386249542, -0.1405916064977646, -0.004957144148647785, -0.021470846608281136, -0.004382257349789143, 0.017510168254375458, 0.008756271563470364, 0.011821998283267021, -0.18777601420879364, -0.2513000965118408, 0.018106888979673386, 0.13085684180259705, 0.03981649875640869, -0.0197442714124918, -0.09880857169628143, 0.047393523156642914, -0.005228888709098101, 0.04409981518983841, -0.18377484381198883, -0.028236975893378258, 0.15605151653289795, -0.10751546174287796, -0.07235147058963776, 0.2448052167892456, -0.1357792764902115, -0.36301350593566895, -0.3264867961406708, -0.26188257336616516, 0.025262825191020966, 0.022058283910155296, -0.01817922107875347, 0.03368672728538513, -0.02211500145494938, -0.033611804246902466, 0.03419117256999016, 0.016813427209854126, 0.03209027647972107, 0.034321241080760956, -0.03365100547671318, -0.026794856414198875, 0.022219020873308182, -0.011398056522011757, -0.017702307552099228, -0.021961158141493797, -0.11392916738986969, -0.019020110368728638, 0.10413096100091934, 0.07340708374977112, 0.005047129932790995, 0.033949267119169235, 0.02041209302842617, 0.008757579140365124, -0.023069847375154495, 0.01811055652797222, 0.02241997793316841, 0.01998198963701725, 0.003162443870678544, -0.0305634755641222, -0.01242501474916935, -0.020269863307476044, 0.015347238630056381, 0.021877042949199677, 0.01406358927488327, 0.007446493953466415, -0.00984275620430708, -0.024675512686371803, -0.11321359872817993, -0.10950594395399094, -0.04836687073111534, 0.018003279343247414, -0.07763335108757019, -0.03442748263478279, -0.049228839576244354, -0.10275750607252121, -0.2767435908317566, -0.27223798632621765, 0.14375442266464233, 0.17760634422302246, 0.04768545925617218, -0.13566426932811737, -0.25978317856788635, -0.3076355755329132, -0.15067267417907715, -0.027791980654001236, -0.02067701891064644, 0.02065591886639595, -0.01634269580245018, 0.020702093839645386, 0.033828992396593094, -0.0016470211558043957, 0.03114115633070469, -0.046272553503513336, -0.11105841398239136, 0.09355266392230988, 0.010810865089297295, -0.05705578252673149, 0.2505815923213959, 0.41070306301116943, 0.3308447301387787, 0.2154383808374405, 0.3648765981197357, 0.1706322580575943, 0.4763062000274658, 0.15488769114017487, 0.1968565434217453, 0.17692872881889343, -0.04287845268845558, -0.0005540362908504903, 0.12526912987232208, 0.22140473127365112, 0.07956892997026443, 0.023775167763233185, 0.2570847272872925, 0.13936424255371094, -0.010112205520272255, -0.01988890767097473, 0.02421656809747219, 0.0076765804551541805, -0.268876314163208, -0.1736103892326355, -0.23469297587871552, 0.4925622344017029, 0.5621443390846252, 0.35600998997688293, -0.018298814073204994, -0.0454646572470665, 0.012324092909693718, 0.07920875400304794, -0.16705457866191864, -0.2138059139251709, 0.07917793095111847, -0.021135900169610977, 0.11906912177801132, -0.07605592161417007, -0.39337635040283203, -0.19854013621807098, 0.00480543402954936, 0.028275994583964348, -0.08070365339517593, -0.10954884439706802, 0.16721110045909882, 0.027012944221496582, 0.12108394503593445, 0.007517061196267605, 0.02815449796617031, 0.03207265958189964, -0.13197225332260132, -0.27668243646621704, -0.022987863048911095, 0.33829018473625183, 0.2551129460334778, -0.15968501567840576, -0.1357869803905487, -0.09892478585243225, -0.03378939628601074, -0.0007825549109838903, 0.017788158729672432, -0.07914280891418457, -0.16099688410758972, -0.11419050395488739, -0.0990433543920517, -0.08913655579090118, -0.03161419555544853, 0.057807423174381256, 0.037142734974622726, -0.18626195192337036, -0.16247929632663727, -0.23467518389225006, -0.13896219432353973, -0.24120153486728668, -0.21480761468410492, 0.274750679731369, -0.035324472934007645, -0.017756007611751556, 0.08977838605642319, 0.0032547228038311005, 0.3982163667678833, 0.5255549550056458, 0.2673530578613281, 0.09929847717285156, 0.2411450743675232, 0.08050400018692017, 0.17673057317733765, 0.2147887498140335, 0.14368434250354767, 0.005446870811283588, -0.009167255833745003, -0.0008653110126033425, 0.07374537736177444, -0.013449955731630325, 0.07643214613199234, -0.05692586302757263, -0.1341352015733719, -0.1177375540137291, 0.11012143641710281, 0.38674959540367126, 0.19795526564121246, -0.0552530437707901, -0.016078749671578407, 0.24926955997943878, 0.004623277112841606, 0.20381978154182434, 0.21046097576618195, 0.5125031471252441, 0.4007342755794525, 0.45577895641326904, 0.27655482292175293, 0.036459505558013916, 0.017919912934303284, 0.21726633608341217, 0.10587191581726074, 0.13754934072494507, 0.08223346620798111, 0.0017111507477238774, -0.10231257230043411, -0.1083829253911972, -0.1650773584842682, -0.12827067077159882, -0.1248721331357956, -0.08398473262786865, -0.24202586710453033, -0.0950741171836853, 0.17356275022029877, 0.10625246167182922, 0.13559027016162872, -0.14190514385700226, 0.13923753798007965, 0.22418935596942902, 0.049276843667030334, 0.45953628420829773, 0.41885244846343994, 0.5786506533622742, 0.1306196004152298, 0.20395319163799286, 0.016358792781829834, 0.055624596774578094, -0.10030455887317657, 0.054439641535282135, -0.04503215476870537, 0.008820786140859127, -0.10666532069444656, -0.022138608619570732, 0.02816092036664486, -0.17647528648376465, -0.07741905748844147, -0.044860757887363434, -0.09876568615436554, -0.11054807156324387, -0.12572267651557922, -0.039225898683071136, 0.08240405470132828, -0.02399018034338951, 0.08946919441223145, -0.033756136894226074, 0.17729024589061737, 0.20812147855758667, 0.3068024516105652, 0.4311196208000183, 0.10587633401155472, 0.029329374432563782, -0.024686776101589203, -0.09330355376005173, -0.1491878479719162, -0.0978129506111145, -0.27270036935806274, -0.10566093772649765, -0.13671696186065674, -0.2642565965652466, -0.19160664081573486, -0.2475087195634842, -0.077936552464962, -0.01295337826013565, -0.12550175189971924, -0.05202294513583183, -0.19245561957359314, -0.14562678337097168, -0.11129160970449448, -0.03962346538901329, -0.02714807353913784, -0.06383056938648224, -0.15955589711666107, -0.15906096994876862, 0.07668790221214294, -0.14749768376350403, 0.16123124957084656, 0.34957155585289, -0.1477973759174347, -0.133963942527771, -0.24846071004867554, -0.12215502560138702, -0.30563297867774963, -0.23249192535877228, -0.26781758666038513, -0.39065271615982056, -0.5182769298553467, -0.4397648870944977, -0.3883557617664337, -0.30476438999176025, -0.04177642613649368, -0.002127457642927766, 0.029965296387672424, -0.0995851382613182, -0.13401801884174347, -0.10555579513311386, -0.011730756610631943, 0.15298669040203094, -0.01369448285549879, -0.10461479425430298, -0.16915154457092285, -0.20082934200763702, -0.024797609075903893, 0.04583650082349777, 0.07967187464237213, 0.2452383041381836, 0.3878921568393707, -0.08814052492380142, -0.4049871861934662, -0.27078977227211, -0.393964022397995, -0.41193488240242004, -0.5346760153770447, -0.5255962014198303, -0.5341740846633911, -0.3707945942878723, -0.24082854390144348, 0.04386743903160095, 0.02692398987710476, 0.14562390744686127, 0.009342986159026623, -0.02946026623249054, -0.046081215143203735, 0.04268995672464371, 0.10960400104522705, 0.05909302458167076, 0.047584038227796555, -0.31854766607284546, -0.14284299314022064, 0.1378583163022995, -0.1624443084001541, 0.03975352272391319, 0.048442479223012924, 0.43487676978111267, 0.18161800503730774, 0.11050859838724136, -0.1388927400112152, -0.1626093089580536, -0.4724138379096985, -0.41968655586242676, -0.32057979702949524, -0.2605922222137451, -0.15535156428813934, 0.008005372248589993, 0.25775519013404846, 0.2618618607521057, 0.11661551147699356, 0.030069401487708092, -0.1520356982946396, -0.13662366569042206, -0.05762861669063568, 0.11270348727703094, 0.08916261792182922, -0.07302354276180267, -0.016466254368424416, -0.40657415986061096, -0.7365496754646301, -0.42168989777565, -0.5826776027679443, 0.23122720420360565, 0.03188898414373398, 0.18283285200595856, 0.13284814357757568, -0.01011357456445694, -0.17493923008441925, -0.11030153185129166, -0.28107404708862305, -0.2503615915775299, 0.08730199187994003, 0.056667834520339966, 0.3264159560203552, 0.44909900426864624, 0.6833978891372681, 0.44768938422203064, 0.1577393114566803, -0.15756362676620483, -0.06899678707122803, -0.11017617583274841, 0.026211554184556007, 0.06003832072019577, -0.03890134021639824, -0.08002790808677673, 0.12128645926713943, -0.4618299901485443, -0.3062690794467926, 0.08365202695131302, -0.05043327435851097, 0.2627202868461609, -0.21833693981170654, -0.004709248896688223, 0.4275017976760864, 0.10087703168392181, -0.06098024919629097, 0.10226608067750931, 0.06751427054405212, -0.07278929650783539, 0.19204716384410858, 0.3029182255268097, 0.5081660747528076, 0.4765392243862152, 0.3565768003463745, 0.10410761088132858, -0.09927777945995331, -0.1414024978876114, 0.054497573524713516, 0.025532077997922897, 0.08835753798484802, -0.007721930276602507, -0.06441628932952881, 0.055634964257478714, -0.01744081825017929, 0.019653158262372017, 0.23082990944385529, 0.12092980742454529, 0.11060012876987457, -0.09668395668268204, 0.10542327910661697, -0.012478319928050041, 0.33139568567276, 0.42720869183540344, 0.16616228222846985, 0.29594308137893677, 0.24775677919387817, 0.13594873249530792, 0.24969127774238586, 0.29219958186149597, 0.24749436974525452, 0.2064124196767807, 0.16767697036266327, -0.0655306950211525, -0.06737986952066422, -0.049819622188806534, 0.07992874830961227, 0.11694834381341934, 0.0002594590769149363, 0.061846230179071426, -0.21269574761390686, -0.022705743089318275, 0.1309012919664383, 0.30912524461746216, 0.2131681591272354, 0.1214580312371254, 0.41013428568840027, 0.1314462423324585, 0.12054912745952606, 0.033541735261678696, 0.39418187737464905, 0.5774759650230408, 0.03644317761063576, 0.264474481344223, 0.21794940531253815, 0.23932020366191864, 0.020098552107810974, 0.11049796640872955, 0.08757081627845764, 0.11065210402011871, 0.11996600776910782, -0.08508522808551788, -0.07774618268013, 0.127413809299469, 0.06846462190151215, 0.15423671901226044, 0.10930849611759186, 0.20576061308383942, 0.10835257172584534, 0.17052419483661652, 0.14829948544502258, 0.34919896721839905, 0.3248738646507263, 0.06462716311216354, 0.3324512839317322, 0.10883598774671555, 0.019309811294078827, 0.19184818863868713, 0.24225518107414246, 0.37783655524253845, 0.27566882967948914, 0.18359145522117615, 0.014587417244911194, 0.2733515202999115, 0.10856031626462936, 0.146551713347435, -0.041305601596832275, 0.005101690534502268, 0.00545563455671072, -0.01380784809589386, 0.10042649507522583, 0.17050234973430634, 0.15672723948955536, 0.1530638039112091, 0.25162580609321594, 0.35693594813346863, 0.2103138566017151, 0.25917935371398926, 0.09042729437351227, 0.09640586376190186, 0.15069301426410675, -0.12683455646038055, 0.30839458107948303, -0.1059659793972969, -0.032892804592847824, 0.13935214281082153, 0.33642739057540894, 0.5296122431755066, 0.3560122847557068, 0.038698237389326096, 0.011355172842741013, -0.10287550091743469, -0.004381601233035326, 0.02906992845237255, -0.021079519763588905, 0.020406587049365044, -0.05104951933026314, 0.013801329769194126, 0.10639673471450806, 0.10524816811084747, 0.16490976512432098, 0.12796136736869812, 0.28344863653182983, 0.14452674984931946, -0.02117558941245079, 0.36382055282592773, 0.1259850114583969, -0.027267320081591606, 0.03587731719017029, 0.1039462462067604, 0.06431721150875092, -0.3342878818511963, 0.1992393136024475, 0.13249675929546356, 0.32417234778404236, 0.6205071806907654, 0.3288942277431488, 0.04430396482348442, -0.0026450047735124826, -0.17350202798843384, 0.09712814539670944, 0.07339228689670563, 0.0011311903363093734, -0.13231873512268066, 0.062003638595342636, 0.128148153424263, 0.020169850438833237, 0.16074596345424652, 0.12652184069156647, 0.15392382442951202, 0.18971304595470428, 0.011436696164309978, -0.08271542191505432, 0.33556997776031494, 0.005481339059770107, -0.11792300641536713, 0.02317909710109234, 0.031093763187527657, 0.37204501032829285, 0.4390006959438324, -0.18332155048847198, 0.21067915856838226, 0.30562928318977356, 0.32456159591674805, 0.06838809698820114, 0.07158376276493073, -0.04556417465209961, -0.030477898195385933, -0.10466083884239197, -0.030689172446727753, -0.07142478972673416, -0.04779089242219925, -0.00568618206307292, 0.048069633543491364, 0.12903402745723724, 0.10924573242664337, 0.037076789885759354, 0.06612594425678253, -0.057755015790462494, -0.25898173451423645, -0.16223613917827606, -0.01776290312409401, -0.17771810293197632, -0.29787468910217285, -0.4195391833782196, -0.2602396011352539, 0.18082141876220703, 0.33585965633392334, 0.02325742319226265, -0.2722885310649872, 0.17613762617111206, 0.5169777274131775, -0.15009427070617676, -0.20095980167388916, -0.054594919085502625, 0.03398557007312775, -0.07872466742992401, -0.021973248571157455, -0.017087537795305252, 0.02295266091823578, 0.0533410981297493, 0.043007541447877884, 0.061542488634586334, -0.0353623665869236, -0.11018018424510956, -0.07150562852621078, 0.008870485238730907, -0.23878785967826843, -0.09461252391338348, -0.08990008383989334, -0.1467522233724594, -0.24216167628765106, -0.21110105514526367, -0.28878095746040344, 0.0228505227714777, 0.0006330292671918869, -0.0755482017993927, 0.13477176427841187, 0.45199403166770935, 0.5573815107345581, -0.19806820154190063, -0.2453598976135254, -0.1653299480676651, -0.20183058083057404, -0.0375131294131279, -0.1674790233373642, -0.04104797542095184, -0.09489947557449341, -0.007293366827070713, -0.12667477130889893, -0.19023004174232483, -0.12030455470085144, -0.01264597475528717, -0.16896842420101166, -0.10048915445804596, -0.06164896488189697, -0.21926939487457275, -0.2504974901676178, -0.03965182602405548, 0.002614405006170273, -0.1881832778453827, -0.30318737030029297, 0.29839468002319336, 0.004299910273402929, -0.05329548567533493, 0.008848764933645725, 0.2544785439968109, 0.16677752137184143, -0.147699236869812, -0.2535480856895447, -0.214323028922081, -0.08955660462379456, -0.19841799139976501, -0.10173846781253815, -0.01778472401201725, -0.0006915350095368922, -0.0823502242565155, -0.11851269006729126, -0.21236911416053772, 0.0024168912786990404, -0.07733456790447235, -0.13581205904483795, -0.25562185049057007, -0.01777084730565548, -0.08920920640230179, -0.23473355174064636, -0.11903093010187149, -0.1827983856201172, -0.3713848292827606, -0.2896396219730377, 0.07863099873065948, 0.020314522087574005, -0.00492462981492281, -0.014793571084737778, 0.22865673899650574, 0.09735248982906342, -0.19201941788196564, -0.19721519947052002, -0.026089832186698914, 0.17827969789505005, -0.13282613456249237, 0.021870369091629982, 0.09892938286066055, 0.1764684021472931, 0.08940519392490387, 0.082034632563591, 0.03707464411854744, 0.0017545933369547129, -0.04184466600418091, -0.17821122705936432, -0.4759995639324188, -0.29980769753456116, -0.13499677181243896, -0.014041402377188206, 0.0175554808229208, 0.0077593689784407616, -0.37003305554389954, -0.2761947512626648, 0.12477350980043411, -0.0020594384986907244, -0.029405079782009125, -0.010508648119866848, 0.3567768931388855, 0.1068219318985939, -0.3032588064670563, -0.284313440322876, -0.0021266706753522158, 0.01602332293987274, -0.10001860558986664, 0.008710095658898354, 0.009257388301193714, 0.08907902240753174, 0.0032651314977556467, 0.11701440811157227, 0.1966295689344406, -0.12201039493083954, -0.1835484504699707, -0.17917442321777344, -0.2243102788925171, -0.2792232632637024, 0.0172208771109581, 0.31073299050331116, 0.35085710883140564, 0.023035608232021332, -0.14357347786426544, 0.18020008504390717, 0.08955654501914978, 0.02707488276064396, 0.009481898508965969, 0.021180788055062294, -0.1714540272951126, 0.14453361928462982, 0.016595054417848587, -0.14345772564411163, 0.15379992127418518, -0.06777730584144592, -0.2538336515426636, -0.14455585181713104, 0.0014667698414996266, 0.09864631295204163, 0.017998475581407547, 0.06476031988859177, -0.17559702694416046, -0.2239118069410324, -0.22021140158176422, -0.30076009035110474, -0.14606958627700806, -0.19211836159229279, -0.13415564596652985, -0.3410075604915619, 0.043210625648498535, 0.17824190855026245, -0.2410414069890976, -0.10990611463785172, 0.02044324204325676, -0.022499652579426765, -0.007470714394003153, 0.0016951306024566293, -0.017006032168865204, -0.314091295003891, -0.2396232932806015, -0.11692143976688385, -0.03297905623912811, -0.360262393951416, -0.12186363339424133, -0.1491493433713913, -0.056639738380908966, -0.1425429731607437, -0.16019998490810394, -0.15775339305400848, -0.4538475573062897, -0.3118835389614105, -0.14261886477470398, -0.2626437246799469, -0.1597156524658203, -0.07572638988494873, -0.36152246594429016, -0.4783726632595062, -0.3388109505176544, -0.2521701753139496, -0.3079158067703247, 0.033050552010536194, 0.027889879420399666, 0.01952190510928631, 0.020210659131407738, -0.010399550199508667, 0.035202134400606155, -0.0034468728117644787, 0.06438750773668289, 0.13034619390964508, -0.10104789584875107, -0.11902396380901337, -0.12332554161548615, -0.1651528775691986, -0.20674940943717957, -0.3787205219268799, -0.217521071434021, -0.15735027194023132, -0.5016108155250549, -0.314103364944458, 0.10489319264888763, 0.15549008548259735, -0.13877716660499573, -0.20008419454097748, -0.03389575332403183, 0.2531720995903015, 0.12778827548027039, 0.23501665890216827, -0.030256565660238266, 0.004387046676129103, -0.004057412035763264, 0.013997431844472885, -0.0007326730992645025, -0.009174185805022717, -0.0031159522477537394, -0.003928005695343018, 0.017208551988005638, 0.02325620874762535, 0.0021220743656158447, -0.012070422060787678, -0.021310824900865555, 0.023449009284377098, 0.00650757597759366, -0.030802791938185692, -0.11865288764238358, -0.08199097216129303, 0.09028030931949615, 0.044524066150188446, 0.013860286213457584, -0.014831241220235825, 0.01912025921046734, -0.02215338684618473, 0.033773548901081085, -0.02043244242668152, 0.017249027267098427, -0.03253099322319031, 0.027085134759545326, 0.004160655662417412, -0.01938502863049507, 0.026306340470910072, -0.034454863518476486, -0.013338821940124035, 0.014816063456237316, -0.03463360294699669, -0.040044475346803665, 0.017149176448583603, -0.07873626053333282, -0.1513233184814453, -0.1834430992603302, -0.10112734884023666, -0.15279746055603027, -0.13883699476718903, -0.28526628017425537, -0.15907365083694458, -0.08492055535316467, 0.020581619814038277, 0.12829287350177765, 0.012903825379908085, -0.20756223797798157, -0.3774281144142151, -0.42784684896469116, -0.37559932470321655, -0.3070428967475891, -0.1753120869398117, -0.029832884669303894, -0.010144880972802639, -0.03355143591761589, 0.019915428012609482, -0.013675132766366005, -0.021227385848760605, 0.0003410261997487396, -0.0399041511118412, -0.09780474007129669, 0.02737211063504219, -0.051885176450014114, -0.18621765077114105, -0.048153106123209, 0.2040972113609314, 0.1601165384054184, 0.20961999893188477, 0.19277431070804596, 0.3037418723106384, 0.2976982891559601, 0.21991311013698578, 0.237138032913208, -0.08223981410264969, -0.22048582136631012, -0.2267976850271225, -0.30689966678619385, -0.30159011483192444, -0.36637625098228455, 0.11946431547403336, 0.2116318792104721, 0.1217140331864357, 0.03450467064976692, 0.004061980172991753, -0.032115086913108826, -0.00711343577131629, 0.2814328670501709, 0.10511071979999542, -0.2155500054359436, -0.2126200944185257, 0.05992155149579048, -0.0035391112323850393, 0.33430299162864685, 0.029200581833720207, -0.20000603795051575, 0.09962216764688492, 0.2147911936044693, -0.09845131635665894, -0.06876171380281448, 0.055808596312999725, 0.10267631709575653, -0.029322315007448196, -0.17005380988121033, -0.01351465005427599, -0.17121262848377228, -0.3150129020214081, -0.2947377562522888, -0.28968462347984314, 0.06065801903605461, 0.032287683337926865, -0.1120048463344574, 0.00955897569656372, -0.01013256050646305, 0.09846905618906021, 0.3462280035018921, 0.20549091696739197, -0.11895270645618439, -0.13621708750724792, 0.17352701723575592, -0.06881188601255417, -0.06344486773014069, -0.215839222073555, -0.018056688830256462, 0.1530042141675949, -0.18800358474254608, -0.25735732913017273, -0.25429031252861023, -0.15115474164485931, -0.10916152596473694, -0.02900298871099949, 0.07214078307151794, 0.14135468006134033, 0.23900321125984192, -0.22044935822486877, -0.0746530219912529, -0.29429954290390015, -0.4161006808280945, -0.17916902899742126, -0.40178418159484863, -0.33844247460365295, 0.01009429432451725, 0.004811440594494343, 0.3555951714515686, -0.16324883699417114, 0.016649805009365082, 0.3234315812587738, 0.23141230642795563, 0.22075462341308594, 0.08017127215862274, -0.029928414151072502, -0.10515998303890228, -0.16384217143058777, -0.21839718520641327, -0.10146380960941315, -0.02538793720304966, -0.008383112028241158, 0.12640032172203064, -0.08995354920625687, -0.0491551011800766, -0.04651039093732834, -0.035968102514743805, -0.11599284410476685, -0.10950862616300583, 0.031344059854745865, -0.14054572582244873, -0.3996160626411438, -0.3610355854034424, -0.3083971440792084, -0.01517536025494337, 0.22912704944610596, 0.07526937127113342, -0.020504457876086235, 0.09739650040864944, 0.3018253445625305, 0.23434369266033173, 0.11535142362117767, -0.07751426100730896, 0.10335756838321686, 0.19751164317131042, -0.0037947888486087322, -0.05908608064055443, -0.0004171160398982465, -0.007089653518050909, 0.05138343945145607, 0.08336986601352692, -0.06366129219532013, 0.03392595425248146, 0.11843939870595932, -0.113743856549263, -0.18515709042549133, 0.004909108392894268, -0.1211458370089531, -0.29203978180885315, -0.4671116769313812, -0.09719338268041611, -0.078659787774086, -0.024978579953312874, 0.39831915497779846, 0.17382818460464478, 0.26196128129959106, 0.1822878122329712, 0.18442553281784058, 0.21163609623908997, 0.2589278519153595, 0.059696584939956665, 0.19111338257789612, 0.23014859855175018, 0.17936758697032928, 0.16718579828739166, 0.13714879751205444, 0.2714102864265442, 0.08810464292764664, 0.1708579808473587, 0.20985017716884613, 0.09657133370637894, 0.22726492583751678, 0.13487684726715088, -0.09561341255903244, 0.11998336017131805, -0.04868125170469284, -0.2033473551273346, -0.4377303123474121, 0.01670338772237301, -0.06427555531263351, -0.005758709739893675, 0.46128392219543457, 0.24951739609241486, 0.09950962662696838, -0.01860775798559189, 0.06681273132562637, -0.14021450281143188, 0.14503619074821472, 0.07886312901973724, 0.2199784517288208, 0.35759642720222473, 0.37572595477104187, 0.18194857239723206, 0.037462957203388214, 0.2528597116470337, 0.1426992267370224, 0.06541062146425247, 0.25165244936943054, 0.1356821209192276, 0.12849536538124084, 0.08092966675758362, 0.002353593008592725, 0.21876566112041473, -0.0537569485604763, -0.4902963936328888, -0.485639750957489, -0.05732038617134094, -0.06360887736082077, 0.0259932279586792, 0.21406276524066925, 0.08326847106218338, -0.05830929055809975, -0.07849343121051788, -0.013843373395502567, 0.030620306730270386, 0.20515811443328857, 0.22524330019950867, 0.24106958508491516, 0.13851287961006165, 0.10589040070772171, 0.12792809307575226, -0.5005269050598145, -0.37455615401268005, -0.0019259157124906778, 0.09424092620611191, 0.08213632553815842, 0.005034948233515024, -0.09200741350650787, -0.10487662255764008, -0.0727219507098198, 0.2517002820968628, -0.022432388737797737, -0.5835416316986084, -0.5044328570365906, 0.22218193113803864, 0.24428585171699524, 0.03050490841269493, 0.10020771622657776, 0.03088049776852131, -0.23346032202243805, -0.23766788840293884, -0.2600099742412567, 0.045744411647319794, 0.09725490212440491, 0.07682978361845016, -0.17035502195358276, -0.3116486966609955, -0.5281223058700562, -0.8198052644729614, -0.9818668365478516, -0.6314445734024048, -0.10462944209575653, 0.10334333777427673, 0.11769616603851318, -0.029186289757490158, -0.07529693096876144, -0.1283147633075714, -0.16312815248966217, -0.13121868669986725, -0.31593677401542664, -0.5008001923561096, -0.07886376976966858, 0.1003262922167778, 0.3687416911125183, 0.05078499764204025, 0.31867194175720215, -0.14427031576633453, -0.3676377534866333, -0.3919532597064972, -0.2964099049568176, -0.3507605493068695, -0.574823260307312, -0.534839928150177, -1.0195722579956055, -1.129409909248352, -1.140737771987915, -1.210517168045044, -0.7548033595085144, -0.15007320046424866, 0.035476088523864746, 0.002619854873046279, -0.05624895170331001, -0.13223551213741302, -0.07603200525045395, -0.04203348606824875, -0.12402847409248352, -0.004046903923153877, -0.11721527576446533, -0.26125484704971313, 0.07617951929569244, -0.43260228633880615, 0.07408659160137177, 0.06078718230128288, -0.1060473695397377, -0.2672499418258667, -0.454227089881897, -0.6062849164009094, -0.7802536487579346, -1.23101806640625, -1.4809629917144775, -1.4025599956512451, -1.5915826559066772, -1.0130809545516968, -0.6024425029754639, -0.17838892340660095, -0.09048911184072495, 0.10975996404886246, 0.08903199434280396, 0.11302319169044495, -0.13743841648101807, -0.15238624811172485, -0.1588563323020935, 0.030644379556179047, 0.017721720039844513, -0.0674896240234375, -0.04985308647155762, -0.06311235576868057, 0.4477439224720001, -0.17088457942008972, -0.01349706668406725, -0.12219426035881042, -0.11708558350801468, -0.0317479744553566, -0.461057186126709, -0.8017235994338989, -1.2182316780090332, -1.5051361322402954, -1.5002801418304443, -0.8792160749435425, -0.5078022480010986, -0.2040613889694214, -0.018132178112864494, 0.15980125963687897, 0.27476486563682556, 0.18684865534305573, -0.008668741211295128, 0.07903146743774414, -0.12425317615270615, -0.07992994785308838, -0.11806941777467728, -0.04697003960609436, 0.14667971432209015, -0.1063593253493309, -0.18105390667915344, 0.0054438188672065735, 0.294517457485199, 0.07866447418928146, -0.06795567274093628, -0.04455715790390968, -0.09244513511657715, 0.12404929101467133, -0.39298731088638306, -0.5225995779037476, -0.7715380787849426, -0.369153767824173, -0.15655358135700226, 0.034439075738191605, 0.2396077960729599, 0.26881101727485657, 0.3581908941268921, 0.38452890515327454, 0.30087006092071533, 0.24022826552391052, 0.07578623294830322, 0.11717473715543747, 0.04726000502705574, 0.07073336094617844, 0.06560052931308746, 0.08329760283231735, 0.17524877190589905, 0.12362650781869888, 0.11886519193649292, 0.13042980432510376, 0.2826240360736847, 0.2645486891269684, 0.14026741683483124, -0.04151801019906998, 0.05763060227036476, 0.25744086503982544, -0.19806988537311554, -0.17043213546276093, -0.047695890069007874, 0.30257901549339294, 0.19675815105438232, 0.23084264993667603, 0.22098810970783234, 0.35980600118637085, 0.3308240473270416, 0.1945227086544037, 0.2030014544725418, 0.11250237375497818, 0.05588610842823982, 0.019557220861315727, 0.04729856923222542, 0.11971830576658249, 0.08378046751022339, 0.026838118210434914, 0.204745814204216, 0.18301859498023987, 0.3683386445045471, 0.25942811369895935, -0.06535225361585617, -0.0016194561030715704, 0.1166723221540451, 0.05790141597390175, 0.12604524195194244, 0.4693169593811035, 0.10997648537158966, 0.34744635224342346, 0.31250396370887756, 0.4248930513858795, 0.33121025562286377, 0.23405706882476807, 0.33704647421836853, 0.2099466323852539, 0.19682760536670685, 0.1938590705394745, 0.2084893137216568, 0.058947063982486725, -0.06752325594425201, 0.0648631602525711, 0.12562786042690277, 0.19088226556777954, 0.295113742351532, 0.06986640393733978, 0.11008365452289581, -0.07783127576112747, 0.10554136335849762, 0.21665683388710022, -0.10351119935512543, 0.14619596302509308, 0.003999548964202404, 0.003074479987844825, 0.22672635316848755, 0.36429712176322937, 0.22964666783809662, 0.13287095725536346, 0.1510027050971985, 0.30448636412620544, 0.08187190443277359, 0.16713343560695648, 0.16436031460762024, 0.09235286712646484, 0.21953770518302917, 0.15541715919971466, 0.040163129568099976, 0.059755899012088776, 0.021646840497851372, -0.07867654412984848, -0.022154154255986214, -0.00483209453523159, 0.13798561692237854, -0.20155133306980133, -0.10073188692331314, -0.004488321021199226, 0.04622454568743706, 0.13111522793769836, -0.22121472656726837, 0.1401393860578537, -0.18222588300704956, 0.2170369178056717, 0.23164699971675873, 0.382026344537735, 0.45776715874671936, -0.03805854171514511, 0.031128305941820145, -0.0332166850566864, -0.0440523698925972, -0.017660049721598625, 0.0902106985449791, 0.09059407562017441, 0.02235129289329052, 0.0878298357129097, 0.1007632240653038, 0.028276529163122177, -0.0215718075633049, -0.0009751709294505417, 0.048202209174633026, 0.0028315966483205557, 0.19845275580883026, -0.12313294410705566, -0.06806199997663498, 0.07710816711187363, 0.040395572781562805, 0.13042239844799042, 0.08531513065099716, 0.4840826392173767, 0.25431180000305176, 0.013718410395085812, -0.26111993193626404, 0.04495168849825859, -0.009015106596052647, -0.1076166033744812, -0.1377277374267578, 0.016645710915327072, -0.090731680393219, -0.16534572839736938, 0.0024009288754314184, 0.0048702373169362545, -0.0159195214509964, -0.022338394075632095, 0.14475548267364502, 0.016568295657634735, 0.05053795501589775, -0.01088485587388277, -0.027343448251485825, -0.11094672232866287, 0.05689002573490143, -0.10258065164089203, 0.0587121844291687, 0.1738792508840561, 0.18650667369365692, 0.13050875067710876, 0.17469394207000732, 0.27723246812820435, 0.19672676920890808, 0.02540046162903309, -0.32718491554260254, -0.16733622550964355, 0.22683055698871613, -0.16382549703121185, -0.19643613696098328, 0.014311369508504868, -0.12887167930603027, -0.1889282912015915, -0.026285778731107712, 0.0680304542183876, -0.06841164827346802, -0.051918599754571915, 0.02057613432407379, 0.078524649143219, -0.12290037423372269, -0.12092211842536926, -0.10662557184696198, 0.00607733428478241, 0.05277197062969208, -0.033687155693769455, 0.13082213699817657, -0.009985418058931828, 0.012956203892827034, -0.1040184497833252, -0.1653100997209549, 0.19621676206588745, 0.1667562574148178, 0.15414421260356903, 0.227095827460289, 0.21774014830589294, 0.38088977336883545, -0.17027442157268524, -0.10341408103704453, -0.00742015615105629, -0.04701307415962219, -0.07604024559259415, -0.08610838651657104, 0.13434284925460815, -0.026215538382530212, 0.09382429718971252, 0.06336750835180283, 0.04690947011113167, -0.04795514792203903, -0.03282030299305916, -0.13811419904232025, -0.0772664025425911, 0.10152637958526611, -0.027028048411011696, 0.215495303273201, -0.02242405153810978, 0.01593426801264286, -0.15213167667388916, -0.12098675966262817, 0.17669835686683655, -0.0058144754730165005, 0.10019505023956299, 0.1879950910806656, 0.27612975239753723, -0.10385692119598389, 0.02515527419745922, 0.24328482151031494, -0.04038378223776817, -0.0437970869243145, -0.047617122530937195, -0.06454954296350479, -0.07542945444583893, -0.14293234050273895, -0.17078837752342224, 0.04787614941596985, 0.07374107837677002, -0.12050644308328629, 0.07320879399776459, -0.0071442509070038795, -0.13869249820709229, 0.1920052170753479, 0.07725600898265839, -0.0010166284628212452, -0.04278166592121124, 0.013818680308759212, -0.1564864069223404, -0.16292037069797516, -0.012581530027091503, -0.003219528356567025, -0.033353134989738464, 0.0024312480818480253, 0.39346569776535034, -0.2736015021800995, -0.06807007640600204, 0.123021699488163, 0.24522143602371216, 0.2613953948020935, 0.026281530037522316, 0.0626727044582367, -0.15212251245975494, -0.05094262585043907, -0.03227078169584274, 0.14488351345062256, -0.1095220074057579, -0.11836865544319153, -0.11532790958881378, -0.12169814109802246, -0.10694362223148346, -0.2908937633037567, -0.27127742767333984, -0.17646825313568115, 0.011375322006642818, 0.026834914460778236, -0.317501962184906, -0.10399048030376434, 0.10006815195083618, 0.0037328090984374285, -0.026952872052788734, 0.019856130704283714, 0.233357772231102, -0.02530130185186863, 0.4364093244075775, 0.11770510673522949, 0.06478003412485123, 0.10812220722436905, 0.17304085195064545, 0.04544719308614731, -0.1221490278840065, -0.10496334731578827, -0.16771042346954346, -0.06979803740978241, -0.08855506777763367, -0.16040265560150146, -0.1676928848028183, 0.2202046513557434, -0.47183117270469666, -0.841103732585907, -0.5196094512939453, -0.22067897021770477, 0.025557657703757286, -0.13581998646259308, 0.0387825146317482, 0.14905746281147003, 0.05245417356491089, -0.02531575784087181, -0.007797105237841606, -0.0163453109562397, -0.17207454144954681, 0.3021252751350403, 0.20646636188030243, -0.10518216341733932, -0.09903928637504578, 0.2484651654958725, 0.43055325746536255, 0.24934007227420807, 0.09482661634683609, 0.06990531086921692, 0.21181893348693848, -0.07550868391990662, 0.020883437246084213, 0.12090381979942322, 0.16575965285301208, -0.18812967836856842, -0.6341511011123657, -0.5654181241989136, -0.3757350444793701, -0.6947437524795532, -0.46378836035728455, 0.017137542366981506, 0.017613818868994713, -0.023466339334845543, 0.08879958838224411, -0.006249160040169954, 0.027372458949685097, -0.03151313588023186, 0.03203276917338371, -0.16166605055332184, -0.43064388632774353, -0.5603093504905701, -0.34148380160331726, 0.12192583084106445, 0.20929738879203796, 0.25245150923728943, 0.3000684678554535, 0.321648508310318, -0.03166009113192558, 0.00856456346809864, 0.19151104986667633, 0.28310951590538025, 0.04491601139307022, -0.055077966302633286, -0.14979857206344604, -0.5957700610160828, -0.6493001580238342, -0.3887448012828827, -0.22526021301746368, -0.28525349497795105, -0.3373129367828369, 0.04486725106835365, -0.012621654197573662, 0.01628243550658226, 0.007758979685604572, -0.03274449333548546, 0.0037308591417968273, 0.03420768678188324, 0.032076165080070496, 0.07900038361549377, 0.09938135743141174, 0.005208844318985939, 0.06818871945142746, 0.29686304926872253, 0.33443379402160645, 0.29954493045806885, 0.3850063681602478, 0.11560200154781342, -0.013177746906876564, 0.40717241168022156, 0.4105817377567291, 0.22396548092365265, -0.0038348077796399593, -0.2005072385072708, -0.12518198788166046, -0.20441403985023499, -0.21180836856365204, 0.04532083868980408, -0.006535674910992384, 0.02607276663184166, 0.001458661979995668, -0.03065015748143196, -0.011020256206393242, 0.013322503305971622, 0.006803964264690876, 0.0257802065461874, 0.01922590471804142, -0.012170123867690563, -0.0032856168691068888, 0.03095489926636219, 0.031263332813978195, -0.02639837935566902, -0.01906411163508892, 0.022635359317064285, -0.0023431458976119757, 0.049917180091142654, 0.12268506735563278, 0.019989578053355217, 0.01568816974759102, 0.02444988116621971, 0.016544083133339882, 0.005214388947933912, 0.020119357854127884, -0.03302537649869919, -0.016354897990822792, -0.009525328874588013, -0.014180409722030163, 0.03501635044813156, 0.006301100831478834, -0.01631038263440132, 0.030691437423229218, -0.029813265427947044, 0.00013051714631728828, -0.019507400691509247, -0.007784942165017128, 0.0009384097647853196, 0.01256158109754324, -0.03424784168601036, -0.002134924288839102, 0.008746141567826271, -0.14135445654392242, 0.02778552658855915, 0.07403159886598587, 0.05058674141764641, -0.35660770535469055, -0.03204887732863426, 0.317454993724823, 0.2682408094406128, -0.06693437695503235, -0.013526313938200474, -0.051039330661296844, -0.1856658011674881, -0.1577042043209076, 0.06871990114450455, -0.018379446119070053, -0.0017194279935210943, 0.0017248648218810558, 0.028832921758294106, 0.0013123410753905773, 0.005943277385085821, 0.001192905125208199, 0.2775632441043854, 0.24101412296295166, -0.10081092268228531, -0.05752282962203026, -0.010205560363829136, -0.039095889776945114, -0.02327059954404831, -0.09936632215976715, 0.014599942602217197, 0.21608802676200867, -0.028996458277106285, -0.10739778727293015, -0.1769588738679886, -0.10314496606588364, -0.16231533885002136, 0.20303665101528168, -0.33087900280952454, -0.37705984711647034, -0.22611701488494873, -0.19776999950408936, 0.02030230686068535, -0.020894354209303856, 0.10373205691576004, 0.01922704093158245, -0.021589655429124832, -0.01319221593439579, 0.020841531455516815, -0.27618566155433655, 0.21082742512226105, 0.20332297682762146, 0.07881766557693481, -0.06141822785139084, -0.12992806732654572, -0.1861596405506134, -0.08266430348157883, 0.01770043931901455, 0.05235295742750168, 0.19408781826496124, 0.20783406496047974, 0.4884320795536041, 0.15607446432113647, 0.21627311408519745, 0.23908036947250366, 0.18147583305835724, -0.039568837732076645, 0.09396503865718842, -0.25744226574897766, -0.35522663593292236, -0.2394942045211792, -0.02640501596033573, 0.21932604908943176, 0.03590092062950134, 0.001244430080987513, -0.009996193461120129, 0.062227580696344376, 0.008654734119772911, 0.20561541616916656, -0.05038970708847046, 0.047612834721803665, -0.11779957264661789, -0.17004835605621338, -0.4638643264770508, -0.5557714700698853, -0.3902621269226074, -0.14010843634605408, 0.00697682099416852, 0.1210164874792099, 0.33664068579673767, 0.3065633177757263, 0.048574961721897125, -0.0013958143536001444, -0.07765596359968185, -0.23595233261585236, -0.3184974193572998, -0.36454474925994873, -0.37157121300697327, -0.31773024797439575, -0.30232012271881104, -0.2012363225221634, 0.13930480182170868, -0.21874389052391052, 0.00933954119682312, -0.004564519505947828, 0.05284929648041725, 0.1016320064663887, 0.15707162022590637, 0.17739492654800415, 0.02308984100818634, -0.02767910435795784, -0.24830074608325958, -0.2979750335216522, -0.22261033952236176, -0.08319075405597687, 0.11332947015762329, 0.3675515055656433, 0.2756814956665039, 0.1863429695367813, 0.12424793094396591, 0.02331414259970188, -0.05585872009396553, -0.18399716913700104, -0.27025914192199707, -0.3507983684539795, -0.16947031021118164, -0.4564370810985565, -0.49260711669921875, -0.2603064179420471, -0.10185686498880386, -0.2434241771697998, -0.014592491090297699, 0.1520211547613144, -0.0956282839179039, 0.1861790120601654, 0.3696492612361908, 0.2165183573961258, -0.008148343302309513, -0.14718611538410187, -0.29422998428344727, -0.3447359502315521, -0.05798115208745003, -0.0524309016764164, -0.06299629807472229, 0.13703034818172455, 0.06328758597373962, 0.07810666412115097, 0.0818321630358696, 0.2662765383720398, 0.37025320529937744, 0.18158869445323944, 0.0957678034901619, 0.18836545944213867, 0.04537039250135422, -0.2429349422454834, -0.3057481646537781, -0.09358023852109909, 0.02444789744913578, -0.2240103930234909, 0.01631946675479412, 0.3678310215473175, 0.12581782042980194, 0.2789960503578186, -0.09680049866437912, -0.3594675064086914, -0.09191208332777023, -0.23843279480934143, -0.26767057180404663, -0.42233043909072876, -0.0488080270588398, -0.1355743408203125, 0.025686681270599365, -0.024515148252248764, -0.14642487466335297, 0.08177930116653442, 0.16980978846549988, 0.3511461317539215, 0.45357778668403625, 0.22836613655090332, 0.29319262504577637, 0.2238863855600357, 0.2051704227924347, 0.1406826674938202, -0.14725784957408905, -0.049190692603588104, -0.05943426489830017, -0.12708038091659546, 0.33030208945274353, 0.3433218002319336, 0.03975754231214523, 0.03895703703165054, -0.34937942028045654, -0.29276320338249207, -0.23011285066604614, -0.09688585996627808, -0.11484333872795105, -0.23725983500480652, -0.010817614383995533, 0.005682258401066065, 0.12165093421936035, -0.051488664001226425, -0.012246731668710709, 0.14926786720752716, 0.3700811266899109, 0.43434420228004456, 0.4411853849887848, 0.3482505679130554, 0.3954728841781616, 0.21520888805389404, 0.3576403856277466, 0.3207520544528961, 0.05225192382931709, -0.19832023978233337, -0.026981549337506294, 0.22364208102226257, 0.14876385033130646, 0.37403741478919983, -0.1102791577577591, 0.00528714619576931, -0.2254445105791092, -0.12417246401309967, -0.0893506407737732, -0.23739390075206757, -0.19811008870601654, -0.08043134212493896, 0.14066706597805023, 0.03887861967086792, 0.1479213386774063, 0.13168968260288239, 0.17267459630966187, 0.1518082618713379, 0.27413666248321533, 0.361102819442749, 0.14181070029735565, 0.2611578106880188, 0.3291459083557129, 0.20892474055290222, 0.2949579954147339, 0.22661708295345306, 0.17407852411270142, 0.23154579102993011, 0.19882047176361084, 0.5392107963562012, 0.12932749092578888, 0.22548557817935944, 0.0935981273651123, -0.025567620992660522, -0.21366198360919952, -0.22044061124324799, 0.029601991176605225, 0.01978839561343193, 0.07459507137537003, 0.1430981159210205, -0.002319834427908063, 0.007737379055470228, -0.048287902027368546, 0.23695245385169983, 0.2747817933559418, 0.03463471308350563, 0.19260063767433167, -0.03509644791483879, 0.06081670895218849, 0.001585388439707458, 0.16778554022312164, 0.07523506134748459, 0.1714051514863968, 0.2446514517068863, 0.14686726033687592, 0.11474104970693588, 0.34524571895599365, 0.2573087513446808, 0.12233921885490417, 0.3222655951976776, 0.31509774923324585, 0.0005784275708720088, -0.32428646087646484, -0.4313372075557709, -0.09292259067296982, 0.2611769735813141, 0.13620930910110474, 0.01184641383588314, 0.049933936446905136, 0.16496562957763672, -0.004247680306434631, 0.2322765439748764, 0.16415105760097504, -0.11014986038208008, -0.2140045315027237, -0.13605934381484985, -0.030285639688372612, -0.09952569007873535, 0.0948856994509697, -0.08988514542579651, 0.0975571945309639, 0.23500604927539825, 0.3280358612537384, 0.3708634078502655, 0.49641159176826477, 0.29391971230506897, 0.21092341840267181, 0.013366734609007835, 0.043923381716012955, -0.10614647716283798, -0.30526548624038696, -0.3611745536327362, -0.15068049728870392, 0.00521711353212595, -0.08791572600603104, 0.07351049780845642, 0.14711210131645203, 0.03124110959470272, -0.09266556054353714, -0.133775532245636, -0.09634748101234436, -0.18631890416145325, -0.24569818377494812, -0.08550939708948135, -0.04574805498123169, 0.07376502454280853, 0.02796929143369198, -0.1351504623889923, -0.003175920806825161, 0.06323060393333435, 0.11252713948488235, 0.05401541292667389, 0.3432840406894684, 0.40042227506637573, -0.23383885622024536, 0.016619497910141945, 0.12763050198554993, -0.09616295248270035, -0.18557117879390717, -0.23190690577030182, -0.1208014190196991, -0.16036079823970795, -0.046455007046461105, -0.012672019191086292, -0.022232718765735626, -0.03559760004281998, -0.09842820465564728, -0.0854572057723999, -0.14352989196777344, -0.20509229600429535, -0.17793478071689606, -0.11739394068717957, -0.08465670049190521, 0.04666978120803833, 0.0035174929071217775, 0.059488505125045776, -0.004094284493476152, -0.0730772390961647, 0.022351745516061783, -0.11463851481676102, 0.21771252155303955, 0.1979120820760727, -0.0439000241458416, 0.07684250921010971, 0.18729889392852783, -0.10147364437580109, -0.11952818185091019, -0.057761646807193756, -0.06251121312379837, -0.1376236081123352, -0.1548115760087967, -0.13051940500736237, -0.04282404109835625, -0.05594330281019211, -0.0944361537694931, -0.08394063264131546, -0.05785378813743591, -0.08113070577383041, -0.23219969868659973, -0.06550461798906326, 0.0179432462900877, -0.01167179923504591, 0.0196947380900383, 0.020681574940681458, -0.10852880775928497, -0.10918442904949188, -0.037862472236156464, -0.416439026594162, 0.06632454693317413, 0.04587549716234207, -0.03951369598507881, 0.07456566393375397, -0.21933813393115997, -0.3607233166694641, 0.015127791091799736, 0.2608242928981781, 0.10948973149061203, 0.008026505820453167, -0.0670749768614769, -0.03722338378429413, -0.054584164172410965, -0.1328357309103012, -0.14251086115837097, -0.1194949522614479, -0.10919278860092163, -0.03953734412789345, -0.24288935959339142, -0.1788060963153839, -0.04083813726902008, 0.008697181940078735, 0.054459601640701294, -0.23385341465473175, -0.1317840963602066, 0.02364710159599781, 0.15467201173305511, -0.02520112507045269, 0.1653926819562912, 0.053256355226039886, 0.037769414484500885, 0.060993049293756485, -0.14070075750350952, -0.26052576303482056, 0.1668841689825058, 0.2206597477197647, 0.09883652627468109, 0.05352679640054703, 0.020973162725567818, 0.07846496999263763, 0.11259154230356216, -0.15003226697444916, -0.24233488738536835, -0.21520374715328217, -0.23129229247570038, -0.13542507588863373, 0.0070936609990894794, 0.002684419509023428, -0.12325546890497208, -0.14189903438091278, -0.18456178903579712, -0.3711642324924469, -0.031105918809771538, -0.0971098318696022, -0.10415446758270264, -0.21539993584156036, 0.23048458993434906, 0.3596780002117157, 0.018934357911348343, 0.03986240550875664, -0.26404693722724915, -0.11395471543073654, 0.02538040094077587, 0.11354214698076248, 0.05393030121922493, 0.10611248016357422, 0.17041520774364471, 0.14238674938678741, -0.1071590855717659, -0.22643476724624634, -0.25639304518699646, -0.1783021241426468, -0.08415256440639496, 0.028994953259825706, 0.06383384019136429, 0.17328280210494995, -0.07339310646057129, -0.10769445449113846, -0.253277450799942, -0.37468278408050537, -0.12642225623130798, -0.14523960649967194, -0.2224346548318863, -0.2648264467716217, 0.04949377849698067, 0.28103145956993103, 0.358624666929245, 0.009597837924957275, 0.010433036834001541, -0.28985777497291565, -0.16086286306381226, 0.14694657921791077, 0.24676324427127838, 0.21484160423278809, 0.261513888835907, 0.037892814725637436, -0.06503897160291672, -0.05772780627012253, -0.1339152306318283, -0.16342054307460785, 0.0186131801456213, 0.13386330008506775, 0.09402604401111603, 0.16280142962932587, 0.07004017382860184, -0.2177824229001999, -0.24450509250164032, -0.17465098202228546, -0.05344213545322418, -0.12042450904846191, -0.11684367805719376, -0.11311216652393341, -0.0688399150967598, -0.2715100347995758, -0.1537557989358902, 0.3981333374977112, 0.20079056918621063, -0.3505007028579712, -0.09279654175043106, 0.08916089683771133, 0.15497635304927826, 0.09483996778726578, 0.134041890501976, 0.03950057551264763, -0.03400582820177078, -0.1278546154499054, -0.04204949364066124, -0.0007262431900016963, 0.041625380516052246, 0.051665179431438446, -0.1069769337773323, 0.17935511469841003, 0.03333109989762306, -0.19254745543003082, -0.260160356760025, -0.3063909411430359, -0.11757204681634903, -0.148019939661026, -0.2061411738395691, -0.38225990533828735, -0.1470884531736374, -0.1843995749950409, -0.03481007739901543, 0.27179986238479614, -0.030290815979242325, -0.19525350630283356, -0.01150396466255188, 0.23351788520812988, 0.055428579449653625, 0.02940305508673191, 0.056920573115348816, -0.06849737465381622, -0.012104076333343983, -0.047970764338970184, -0.03503769263625145, 0.03246963769197464, -0.06171594560146332, -0.01296747662127018, -0.2188597023487091, -0.0379885770380497, -0.24596121907234192, -0.28316381573677063, -0.33773285150527954, -0.16290631890296936, -0.215996652841568, -0.3259679675102234, -0.36929428577423096, -0.3149015009403229, -0.18871289491653442, -0.16236814856529236, -0.1663888394832611, -0.058213409036397934, -0.1848268061876297, -0.09711172431707382, 0.08519279956817627, -0.0434659905731678, 0.1115957647562027, 0.0571981742978096, -0.12519344687461853, -0.04696439579129219, -0.013156136497855186, -0.03589538857340813, -0.04044350981712341, -0.039932090789079666, -0.09458722919225693, -0.15988102555274963, -0.1949639618396759, -0.00581434415653348, -0.042764727026224136, -0.09051433205604553, -0.4301559031009674, -0.3468139171600342, -0.31257733702659607, -0.3821186423301697, -0.4459295868873596, -0.2493562549352646, 0.29218804836273193, 0.025087080895900726, -0.15936359763145447, -0.09662579745054245, 0.021442176774144173, 0.04801741614937782, 0.15773481130599976, 0.04805152490735054, 0.16095022857189178, 0.1278502494096756, -0.014830419793725014, 0.08476616442203522, -0.021776122972369194, -0.11293549090623856, -0.042119771242141724, -0.06448016315698624, -0.028288083150982857, -0.177209734916687, -0.16275089979171753, 0.06176018714904785, 0.02126878686249256, -0.1319347620010376, -0.4931281805038452, -0.6191626787185669, -0.37975800037384033, -0.19358612596988678, -0.23117291927337646, -0.1481962352991104, -0.03263852372765541, -0.00219020270742476, -0.029094357043504715, -0.01811083033680916, 0.1764911562204361, 0.10875901579856873, 0.14905060827732086, 0.15208065509796143, 0.07249774038791656, 0.1527734398841858, -0.018484149128198624, -0.06082326918840408, -0.012862717732787132, -0.04122872278094292, -0.18911829590797424, 0.011244463734328747, -0.11435139179229736, -0.01028033159673214, 0.10282401740550995, 0.09562581032514572, -0.08572123199701309, -0.25674089789390564, -0.5808412432670593, -0.5857305526733398, -0.38069212436676025, -0.14641018211841583, 0.10641999542713165, -0.1375558227300644, -0.3159855306148529, -0.02105764113366604, 0.005967008415609598, -0.031356602907180786, 0.2006678730249405, 0.2715354859828949, 0.48265185952186584, 0.40107282996177673, 0.10729511082172394, 0.02243712730705738, 0.02187766507267952, -0.0827011838555336, 0.14879846572875977, 0.07460597902536392, 0.09884555637836456, 0.08268877118825912, -0.06478533148765564, 0.044305216521024704, 0.0890011340379715, -0.0547940731048584, -0.2937152087688446, -0.3029813766479492, -0.36381301283836365, -0.6117370128631592, -0.43886077404022217, -0.2862553000450134, -0.07263319194316864, -0.26488015055656433, -0.14602501690387726, -0.007213405333459377, -0.03009078837931156, 0.03428597003221512, -0.09695028513669968, 0.23278120160102844, -0.022360699251294136, -0.06202762946486473, 0.05693364515900612, 0.26654160022735596, 0.11767333745956421, 0.11100781708955765, 0.3480888307094574, 0.22253164649009705, 0.29112276434898376, 0.05401734635233879, -0.01551315188407898, -0.04719805344939232, 0.1783393770456314, -0.09988980740308762, -0.21427558362483978, -0.09081235527992249, -0.2292800098657608, -0.3012614846229553, -0.2238416075706482, -0.18170706927776337, -0.11791016906499863, -0.11877186596393585, -0.05587882548570633, 0.021003689616918564, -0.028657259419560432, 0.03118680790066719, -0.007246941793709993, 0.22676189243793488, -0.2996944487094879, -0.2841290235519409, -0.24128040671348572, 