double fc2_weight[640] = {-0.3287326395511627, 0.14541850984096527, 0.19584940373897552, 0.09354841709136963, -0.39230942726135254, 0.17115643620491028, -0.07606255263090134, -0.6661221385002136, -0.13418084383010864, 0.23633690178394318, -0.6280103325843811, 0.2558096647262573, 0.18381746113300323, -0.478776752948761, -0.15280744433403015, -0.5017596483230591, 0.12565003335475922, -0.27709540724754333, 0.25512534379959106, 0.5357927083969116, 0.14911198616027832, 0.5150051116943359, 0.09022437781095505, 0.018102159723639488, -1.2032665014266968, -1.1004680395126343, 0.3047834038734436, -0.28709226846694946, -0.05088450387120247, 0.3181518018245697, 0.5299186110496521, 0.2980632185935974, -1.1645878553390503, 0.1470344364643097, -0.1453678160905838, 0.276051789522171, 0.2530255615711212, 0.0634421557188034, -0.17377209663391113, 0.3712611198425293, -0.6289078593254089, -0.3470922112464905, 0.17148949205875397, -0.5241318941116333, 0.0029267158824950457, -0.15033657848834991, -0.02839684672653675, 0.4093678891658783, 0.4275450110435486, 0.09935880452394485, -0.032786887139081955, -0.007224126253277063, -0.2715064585208893, -0.3335004448890686, -0.022388538345694542, 0.06831943243741989, -0.10147675126791, -0.6123696565628052, 0.0945240780711174, 0.09359250962734222, -0.006655950099229813, -0.2549070715904236, -0.3668714165687561, -0.44746676087379456, 0.17763884365558624, 0.29497969150543213, -0.6428694128990173, -0.1429952085018158, 0.4390401542186737, -0.603179931640625, -0.15649442374706268, 0.7941904067993164, 0.15558992326259613, -0.7244985103607178, -0.3404877781867981, -0.5067139863967896, 0.18623581528663635, -0.2770732045173645, -0.16295868158340454, -0.29799121618270874, -0.002649485133588314, 0.15730278193950653, -0.37607860565185547, 0.27349236607551575, -0.016721481457352638, 0.1644015908241272, 0.45187026262283325, -0.1005304753780365, 0.21369783580303192, 0.07369056344032288, 0.043443210422992706, 0.31317010521888733, -0.5108489990234375, 0.10570818930864334, 0.6463611125946045, -0.2395685315132141, 0.07102424651384354, -0.024789050221443176, 0.778231680393219, -0.2617845833301544, 0.24743658304214478, -0.18072135746479034, 0.08216600865125656, -0.6874834895133972, 0.0519305095076561, -0.630012035369873, 0.11072718352079391, 0.7619867324829102, -0.8119515776634216, -0.10421920567750931, 0.1127014011144638, 0.525013267993927, -0.6307367086410522, 0.20054300129413605, -0.9908464550971985, -0.06818010658025742, 0.24451568722724915, 0.5467146039009094, 0.29257524013519287, -0.17783699929714203, 0.4712779223918915, 0.14141139388084412, -0.5393564701080322, -0.1250087320804596, -0.4954048991203308, 0.12958623468875885, 0.26925715804100037, 0.17753182351589203, 0.33615392446517944, 0.3679364323616028, -0.21196714043617249, 0.48494431376457214, 0.5351566076278687, -0.07126908004283905, -0.32214927673339844, -0.18745233118534088, -0.21491943299770355, -0.2215094268321991, -0.4588813781738281, 0.21627290546894073, 0.12476202100515366, 0.2886604964733124, 0.04324029013514519, 0.16828888654708862, -0.14586715400218964, 0.491332083940506, -0.06348562985658646, 0.3071068823337555, -1.3260785341262817, 0.2591107487678528, 0.20538809895515442, -0.7256272435188293, -0.08886389434337616, 0.08094128966331482, 0.36763259768486023, 0.3671460747718811, 0.08252942562103271, -0.03559873625636101, -0.07644456624984741, -0.2706667482852936, -0.2077610194683075, 0.05617712438106537, 0.3822092115879059, -0.6488522291183472, 0.3605271875858307, 0.20456796884536743, 0.40774089097976685, 0.042271241545677185, -0.2435539960861206, -0.22784331440925598, 0.20457297563552856, 0.4095331132411957, 0.5045051574707031, 0.05775411054491997, -0.19610005617141724, 0.3667334020137787, 0.39789730310440063, 0.15431641042232513, 0.006312030833214521, -0.03528035432100296, -0.6567422747612, -0.31550079584121704, 0.08529327809810638, -0.11077622324228287, 0.3083435893058777, 0.6748600006103516, 0.3446447253227234, -0.800017237663269, -0.11591875553131104, 0.31751886010169983, -0.9386143684387207, 0.17883999645709991, -0.2446216642856598, 0.055316489189863205, -0.03417379781603813, 0.36137285828590393, 0.3890073895454407, 0.08782126009464264, -0.8141855001449585, -0.6275662183761597, -0.659922182559967, 0.23877032101154327, 0.22675953805446625, 0.05452887713909149, 0.5307539701461792, 0.33709612488746643, 0.17675569653511047, 0.08547300100326538, -0.2797887325286865, 0.29281681776046753, -0.0588819645345211, -0.25838151574134827, 0.2739110291004181, -0.23491697013378143, -0.08198976516723633, 0.256773442029953, 0.38174203038215637, 0.13858817517757416, -0.054018016904592514, -0.2411513328552246, -0.6749078035354614, -0.9473875164985657, 0.04043075814843178, 0.038175974041223526, 0.16285696625709534, 0.183627188205719, -0.6172581315040588, -0.1777762919664383, -0.7632192373275757, -0.22736531496047974, -0.7341539859771729, -0.2945121228694916, 0.21882112324237823, 0.6357112526893616, 0.22055713832378387, 0.10552966594696045, -0.006132235284894705, 0.04099375754594803, 0.2627217471599579, 0.10447975993156433, 0.1336551308631897, -0.5215189456939697, -0.12978433072566986, -0.07122644037008286, -0.16134633123874664, 0.513576328754425, 0.5776525735855103, 0.4185079336166382, -0.037171874195337296, -0.24684545397758484, 0.2060980349779129, 0.5808844566345215, -0.0009645175305195153, 0.3596753180027008, -0.5898022651672363, -0.018015755340456963, -0.03198818117380142, 0.25065287947654724, 0.19387736916542053, 0.03323374316096306, -0.4833419919013977, -0.846204936504364, -0.28848594427108765, 0.1616346389055252, -0.25273963809013367, -0.05355047807097435, -0.0075537278316915035, 0.5487540364265442, -0.9753897786140442, 0.13418062031269073, -0.17338430881500244, -0.17197205126285553, 0.23014147579669952, -0.5869680047035217, 0.06125335395336151, -0.8652481436729431, 0.19865724444389343, -0.13059119880199432, -1.01322603225708, -0.6342770457267761, 0.25966131687164307, 0.14223971962928772, 0.008159805089235306, -0.6417325139045715, 0.2775909900665283, 0.16412077844142914, -0.6978488564491272, -0.17592553794384003, -0.037644680589437485, -0.7410709261894226, -0.11718571186065674, 0.4984852373600006, -0.1833789199590683, 0.6288800239562988, 0.12100067734718323, 0.062373410910367966, 0.14240209758281708, -0.15973012149333954, -1.0597459077835083, 0.6778913140296936, -0.0077970800921320915, 0.13605357706546783, -0.48337385058403015, -0.443467378616333, -0.36031943559646606, 0.29445773363113403, -0.11106866598129272, -0.9507843852043152, 0.4411870539188385, 0.734382688999176, -1.0499941110610962, -0.4137129485607147, -0.5018697381019592, -0.34507453441619873, -0.9153228998184204, 0.3788715898990631, -0.08655422925949097, -0.3129855990409851, 0.38587233424186707, -0.025539539754390717, 0.11509611457586288, -1.1706452369689941, -0.30007243156433105, -0.14129680395126343, -0.306526243686676, 0.0340852327644825, 0.2313186526298523, 0.021859249100089073, 0.3877800703048706, -0.16586650907993317, 0.28635627031326294, -0.09854979068040848, -0.5427353382110596, -0.11604402214288712, 0.04962047189474106, -0.1815975159406662, -0.43955591320991516, 0.2827519476413727, 0.3909245431423187, 0.2394765466451645, 0.08257876336574554, -0.9829884171485901, 0.5380710363388062, 0.47455692291259766, 0.2200240194797516, 0.32411113381385803, -1.147887110710144, 0.500054657459259, 0.3647041916847229, -0.3764689266681671, 0.27254119515419006, 0.045389555394649506, 0.3671834170818329, -0.008272097446024418, -0.6572303771972656, 0.16777274012565613, -0.4872962236404419, 0.3058977723121643, -0.09985604137182236, 0.10529965907335281, 0.05164545401930809, 0.5150309801101685, 0.18387183547019958, -0.2479758858680725, 0.00403020391240716, -0.2544502913951874, -0.27966591715812683, -0.7832641005516052, -0.0849451869726181, 0.32456499338150024, 0.05121896043419838, 0.18222521245479584, -0.40892767906188965, -0.8506757616996765, -0.20389366149902344, 0.31617864966392517, 0.0814799964427948, -0.1531672477722168, -0.006258902605623007, 0.5481886267662048, 0.04440925270318985, -0.7318495512008667, 0.3304862082004547, -0.08092199265956879, 0.17245827615261078, -0.8239592909812927, 0.22711066901683807, 0.26985621452331543, -0.4981740415096283, -0.29800117015838623, 0.1478811502456665, 0.26129329204559326, 0.40123313665390015, 0.08834847062826157, -0.05250370129942894, -0.4276394248008728, 0.39847761392593384, 0.08827599138021469, -0.8015082478523254, 0.39482468366622925, -0.08895304799079895, 0.06450821459293365, -0.6675027012825012, -0.2613567113876343, 0.23551571369171143, -0.1279478222131729, -0.4643288850784302, 0.16633321344852448, -0.9808495044708252, -0.6884618401527405, -0.29410868883132935, 0.27751490473747253, 0.05561838671565056, 0.11645384132862091, 0.5258561372756958, -0.005538007244467735, -0.8831082582473755, 0.07690075039863586, 0.4420609474182129, 0.24666522443294525, 0.10381792485713959, 0.0672483965754509, 0.09572560340166092, 0.19348523020744324, 0.1112917810678482, -0.1362610012292862, 0.15719278156757355, -0.5523351430892944, -0.5233198404312134, 0.2422012835741043, -0.4117581248283386, -0.1259661465883255, 0.2099742889404297, 0.2166539430618286, 0.4107290506362915, 0.37994739413261414, -0.4944307208061218, 0.11423418670892715, 0.3171951472759247, 0.1959012746810913, -0.566850483417511, 0.11078698188066483, -0.722758412361145, -0.42463418841362, -1.0536662340164185, -0.6002864837646484, -0.05535365641117096, 0.09077507257461548, 0.27249494194984436, 0.25989243388175964, -0.3403892517089844, 0.6586924195289612, 0.8657932281494141, 0.22543320059776306, -0.0391327440738678, 0.4260678291320801, 0.08688123524188995, -0.17888903617858887, 0.06068812683224678, 0.002512086881324649, 0.11643889546394348, -0.7944246530532837, 0.1713849902153015, -0.11429775506258011, 0.24410048127174377, -0.49550774693489075, 0.2614423334598541, 0.06174302101135254, -0.27039119601249695, 0.1396614909172058, 0.018225623294711113, -0.8369021415710449, 0.06207304820418358, 0.09450872242450714, -0.06399363279342651, -0.5944487452507019, -0.25095850229263306, 0.43308863043785095, -0.03991645574569702, -0.29109081625938416, -0.8589259386062622, 0.16161155700683594, 0.09974617511034012, 0.9103481769561768, -0.4156934916973114, -0.42971271276474, 0.3488716781139374, -0.744355320930481, -0.5631469488143921, 0.20350337028503418, -0.5470505952835083, -0.4989576041698456, 0.20673881471157074, -0.031199779361486435, 0.14431145787239075, -0.019752515479922295, -0.6670939326286316, 0.015714332461357117, -0.006036418955773115, -0.43106400966644287, 0.27252674102783203, -0.19770151376724243, 0.2593078911304474, -0.519821047782898, 0.5204592347145081, 0.304911732673645, 0.3307919204235077, -0.3436949551105499, 0.1134156808257103, 0.49577760696411133, 0.037019338458776474, -0.44088616967201233, 0.026471298187971115, -0.3617804944515228, 0.3146716356277466, -0.8289218544960022, -0.7023887634277344, 0.27714401483535767, 0.21553193032741547, 0.12978105247020721, 0.1386808454990387, -0.04437107592821121, -0.06455325335264206, 0.12586744129657745, -0.14990714192390442, -0.30353283882141113, 0.3204166889190674, 0.2998167872428894, -0.8101357221603394, -0.0037366121541708708, -0.39659231901168823, -0.9460930228233337, 0.13030701875686646, -0.05908031389117241, -0.03698063641786575, 0.27322137355804443, 0.06871076673269272, 0.019279584288597107, -0.06989727914333344, -0.42501088976860046, 0.3191176950931549, -0.20156818628311157, -0.7673509120941162, 0.1301795393228531, 0.05312195420265198, -0.2759760320186615, -0.3882875442504883, -0.5821934342384338, 0.3182939887046814, -0.49957510828971863, -0.5191617012023926, 0.16280925273895264, 0.25689685344696045, -0.8010843992233276, 0.2127951979637146, -0.48952192068099976, -0.07633785158395767, 0.22053217887878418, 0.14870087802410126, -0.3770788311958313, 0.1476539820432663, 0.245390385389328, 0.1413862258195877, 0.1709773987531662, -0.33591341972351074, -0.08037011325359344, -0.5013567805290222, -0.004563081078231335, -0.34608644247055054, 0.47570475935935974, 0.1952187567949295, -1.2465324401855469, 0.1500144600868225, -0.2943175733089447, -0.3023683726787567, 0.19340038299560547, -0.9696972966194153, 0.2767435312271118, 0.2389342486858368, -0.8346951603889465, -1.1961064338684082, 0.07029154151678085, 0.624171793460846, -0.4049084782600403, -0.04893370717763901, 0.16434086859226227, 0.15265613794326782, -0.2502729296684265, 0.28990671038627625, 0.4610810875892639, -0.08850570768117905, -0.13477012515068054, 0.36034613847732544, -0.7762153744697571, 0.13950422406196594, 0.3091067373752594, 0.2772761285305023, 0.2528705894947052, -0.02772386558353901, -0.05145176127552986, 0.08418554067611694, -0.10626795142889023, 0.3470766246318817, 0.01865650899708271, 0.19736923277378082, 0.05107833445072174, -0.5879334807395935, -0.1439782977104187, 0.29045772552490234, 0.16886617243289948, -0.3712586760520935, -0.6054647564888, 0.1339559555053711, -0.382991760969162, 0.07677352428436279, -0.31518107652664185, -0.26912111043930054, 0.3067956566810608, -0.2295309603214264, -0.48390358686447144, -0.007092657964676619, -0.10242438316345215, -0.07228215038776398, 0.1938612312078476, -0.39486193656921387, -1.0893681049346924, 0.24579794704914093, -0.11102322489023209, 0.349748432636261, -0.3716658055782318, -0.30020809173583984, -0.5984364151954651, -0.4675825834274292, -0.9081334471702576, 0.15999118983745575, 0.6630033850669861, 0.13439039885997772, -0.2627129554748535, 0.22108690440654755, 0.1911436915397644};
